{"learner":{"attributes":{"scikit_learn":"{\"_estimator_type\": \"classifier\"}"},"feature_names":["tenure","MonthlyCharges","Contract_Month-to-month","TotalCharges","InternetService_Fiber optic","PaperlessBilling","PaymentMethod_Electronic check","PaymentMethod_Bank transfer (automatic)","TotalServicesSubscribed","Contract_Two year","DeviceProtection","SeniorCitizen"],"feature_types":["int","float","int","float","int","int","int","int","int","int","int","int"],"gradient_booster":{"model":{"gbtree_model_param":{"num_parallel_tree":"1","num_trees":"500"},"iteration_indptr":[0,1,2,3,4,5,6,7,8,9,10,11,12,13,14,15,16,17,18,19,20,21,22,23,24,25,26,27,28,29,30,31,32,33,34,35,36,37,38,39,40,41,42,43,44,45,46,47,48,49,50,51,52,53,54,55,56,57,58,59,60,61,62,63,64,65,66,67,68,69,70,71,72,73,74,75,76,77,78,79,80,81,82,83,84,85,86,87,88,89,90,91,92,93,94,95,96,97,98,99,100,101,102,103,104,105,106,107,108,109,110,111,112,113,114,115,116,117,118,119,120,121,122,123,124,125,126,127,128,129,130,131,132,133,134,135,136,137,138,139,140,141,142,143,144,145,146,147,148,149,150,151,152,153,154,155,156,157,158,159,160,161,162,163,164,165,166,167,168,169,170,171,172,173,174,175,176,177,178,179,180,181,182,183,184,185,186,187,188,189,190,191,192,193,194,195,196,197,198,199,200,201,202,203,204,205,206,207,208,209,210,211,212,213,214,215,216,217,218,219,220,221,222,223,224,225,226,227,228,229,230,231,232,233,234,235,236,237,238,239,240,241,242,243,244,245,246,247,248,249,250,251,252,253,254,255,256,257,258,259,260,261,262,263,264,265,266,267,268,269,270,271,272,273,274,275,276,277,278,279,280,281,282,283,284,285,286,287,288,289,290,291,292,293,294,295,296,297,298,299,300,301,302,303,304,305,306,307,308,309,310,311,312,313,314,315,316,317,318,319,320,321,322,323,324,325,326,327,328,329,330,331,332,333,334,335,336,337,338,339,340,341,342,343,344,345,346,347,348,349,350,351,352,353,354,355,356,357,358,359,360,361,362,363,364,365,366,367,368,369,370,371,372,373,374,375,376,377,378,379,380,381,382,383,384,385,386,387,388,389,390,391,392,393,394,395,396,397,398,399,400,401,402,403,404,405,406,407,408,409,410,411,412,413,414,415,416,417,418,419,420,421,422,423,424,425,426,427,428,429,430,431,432,433,434,435,436,437,438,439,440,441,442,443,444,445,446,447,448,449,450,451,452,453,454,455,456,457,458,459,460,461,462,463,464,465,466,467,468,469,470,471,472,473,474,475,476,477,478,479,480,481,482,483,484,485,486,487,488,489,490,491,492,493,494,495,496,497,498,499,500],"tree_info":[0,0,0,0,0,0,0,0,0,0,0,0,0,0,0,0,0,0,0,0,0,0,0,0,0,0,0,0,0,0,0,0,0,0,0,0,0,0,0,0,0,0,0,0,0,0,0,0,0,0,0,0,0,0,0,0,0,0,0,0,0,0,0,0,0,0,0,0,0,0,0,0,0,0,0,0,0,0,0,0,0,0,0,0,0,0,0,0,0,0,0,0,0,0,0,0,0,0,0,0,0,0,0,0,0,0,0,0,0,0,0,0,0,0,0,0,0,0,0,0,0,0,0,0,0,0,0,0,0,0,0,0,0,0,0,0,0,0,0,0,0,0,0,0,0,0,0,0,0,0,0,0,0,0,0,0,0,0,0,0,0,0,0,0,0,0,0,0,0,0,0,0,0,0,0,0,0,0,0,0,0,0,0,0,0,0,0,0,0,0,0,0,0,0,0,0,0,0,0,0,0,0,0,0,0,0,0,0,0,0,0,0,0,0,0,0,0,0,0,0,0,0,0,0,0,0,0,0,0,0,0,0,0,0,0,0,0,0,0,0,0,0,0,0,0,0,0,0,0,0,0,0,0,0,0,0,0,0,0,0,0,0,0,0,0,0,0,0,0,0,0,0,0,0,0,0,0,0,0,0,0,0,0,0,0,0,0,0,0,0,0,0,0,0,0,0,0,0,0,0,0,0,0,0,0,0,0,0,0,0,0,0,0,0,0,0,0,0,0,0,0,0,0,0,0,0,0,0,0,0,0,0,0,0,0,0,0,0,0,0,0,0,0,0,0,0,0,0,0,0,0,0,0,0,0,0,0,0,0,0,0,0,0,0,0,0,0,0,0,0,0,0,0,0,0,0,0,0,0,0,0,0,0,0,0,0,0,0,0,0,0,0,0,0,0,0,0,0,0,0,0,0,0,0,0,0,0,0,0,0,0,0,0,0,0,0,0,0,0,0,0,0,0,0,0,0,0,0,0,0,0,0,0,0,0,0,0,0,0,0,0,0,0,0,0,0,0,0,0,0,0,0,0,0,0,0,0,0,0,0,0,0,0,0,0,0,0,0,0,0,0,0,0,0,0,0,0,0,0,0,0,0,0,0,0,0,0,0,0,0,0,0,0,0,0,0,0,0,0,0],"trees":[{"base_weights":[-6.596337E-2,-1.0515516E0,7.5171083E-1,-1.1720197E0,-6.512147E-1,6.9826856E-2,1.3070754E0,-1.2863079E-2,-1.0840011E-2,-4.5173094E-3,-1.1465023E-2,8.894001E-3,-3.7443084E-3,1.9691247E-2,5.5201086E-3],"categories":[],"categories_nodes":[],"categories_segments":[],"categories_sizes":[],"default_left":[0,0,0,0,0,0,0,0,0,0,0,0,0,0,0],"id":0,"left_children":[1,3,5,7,9,11,13,-1,-1,-1,-1,-1,-1,-1,-1],"loss_changes":[8.063759E2,2.1117096E1,2.0702979E2,2.1012268E0,1.007299E1,9.010576E1,1.4956769E2,0E0,0E0,0E0,0E0,0E0,0E0,0E0,0E0],"parents":[2147483647,0,0,1,1,2,2,3,3,4,4,5,5,6,6],"right_children":[2,4,6,8,10,12,14,-1,-1,-1,-1,-1,-1,-1,-1],"split_conditions":[1E0,9.525E1,1E0,3.09E1,7.1E1,4E0,1.8E1,-1.2863079E-2,-1.0840011E-2,-4.5173094E-3,-1.1465023E-2,8.894001E-3,-3.7443084E-3,1.9691247E-2,5.5201086E-3],"split_indices":[2,1,4,1,0,0,0,0,0,0,0,0,0,0,0],"split_type":[0,0,0,0,0,0,0,0,0,0,0,0,0,0,0],"sum_hessian":[9.986221E2,4.526871E2,5.45935E2,3.4649374E2,1.0619335E2,2.455595E2,3.003755E2,1.4482751E2,2.0166623E2,7.706603E1,2.912732E1,8.596605E1,1.5959344E2,1.5918889E2,1.411866E2],"tree_param":{"num_deleted":"0","num_feature":"12","num_nodes":"15","size_leaf_vector":"1"}},{"base_weights":[-8.239007E-2,-1.0481584E0,7.0268226E-1,-1.2062587E0,-6.76331E-1,3.4505017E-3,1.2825581E0,-1.0729386E-2,-1.3006379E-2,-8.647942E-3,-2.077698E-3,6.299943E-3,-4.7005364E-3,1.9459903E-2,6.3616703E-3],"categories":[],"categories_nodes":[],"categories_segments":[],"categories_sizes":[],"default_left":[0,0,0,0,0,0,0,0,0,0,0,0,0,0,0],"id":1,"left_children":[1,3,5,7,9,11,13,-1,-1,-1,-1,-1,-1,-1,-1],"loss_changes":[7.5380914E2,2.53891E1,2.2238339E2,2.5239563E0,1.1765358E1,7.435991E1,1.2733719E2,0E0,0E0,0E0,0E0,0E0,0E0,0E0,0E0],"parents":[2147483647,0,0,1,1,2,2,3,3,4,4,5,5,6,6],"right_children":[2,4,6,8,10,12,14,-1,-1,-1,-1,-1,-1,-1,-1],"split_conditions":[1E0,1E0,1E0,1E0,1E0,6E0,1.6E1,-1.0729386E-2,-1.3006379E-2,-8.647942E-3,-2.077698E-3,6.299943E-3,-4.7005364E-3,1.9459903E-2,6.3616703E-3],"split_indices":[2,4,4,9,6,0,0,0,0,0,0,0,0,0,0],"split_type":[0,0,0,0,0,0,0,0,0,0,0,0,0,0,0],"sum_hessian":[9.922401E2,4.4476758E2,5.4747253E2,3.104997E2,1.3426787E2,2.4864944E2,2.9882306E2,1.3382588E2,1.7667381E2,9.515092E1,3.9116955E1,1.068863E2,1.4176315E2,1.4647545E2,1.5234763E2],"tree_param":{"num_deleted":"0","num_feature":"12","num_nodes":"15","size_leaf_vector":"1"}},{"base_weights":[-7.906862E-2,-1.0422598E0,6.900659E-1,-8.3238286E-1,-1.226579E0,1.3658719E0,3.4356245E-1,-9.544759E-3,-3.155115E-3,-1.3116731E-2,-1.1014706E-2,5.887078E-3,1.8672625E-2,-1.8934747E-3,5.7274178E-3],"categories":[],"categories_nodes":[],"categories_segments":[],"categories_sizes":[],"default_left":[0,0,0,0,0,0,0,0,0,0,0,0,0,0,0],"id":2,"left_children":[1,3,5,7,9,11,13,-1,-1,-1,-1,-1,-1,-1,-1],"loss_changes":[7.3476495E2,1.6012726E1,1.2868085E2,1.2888107E1,1.0285645E0,7.161136E1,4.479974E1,0E0,0E0,0E0,0E0,0E0,0E0,0E0,0E0],"parents":[2147483647,0,0,1,1,2,2,3,3,4,4,5,5,6,6],"right_children":[2,4,6,8,10,12,14,-1,-1,-1,-1,-1,-1,-1,-1],"split_conditions":[1E0,1E0,6E0,5.35645E3,4.42845E3,1E0,1E0,-9.544759E-3,-3.155115E-3,-1.3116731E-2,-1.1014706E-2,5.887078E-3,1.8672625E-2,-1.8934747E-3,5.7274178E-3],"split_indices":[2,9,0,3,3,5,5,0,0,0,0,0,0,0,0],"split_type":[0,0,0,0,0,0,0,0,0,0,0,0,0,0,0],"sum_hessian":[9.898508E2,4.3932578E2,5.50525E2,2.0800014E2,2.3132562E2,1.8559888E2,3.6492618E2,1.6757068E2,4.042947E1,1.3203545E2,9.9290184E1,7.363599E1,1.119629E2,1.0979472E2,2.5513145E2],"tree_param":{"num_deleted":"0","num_feature":"12","num_nodes":"15","size_leaf_vector":"1"}},{"base_weights":[-7.341956E-2,8.576678E-1,-6.16698E-1,1.3015226E-1,1.3679199E0,-2.7600682E-1,-1.2380672E0,6.109078E-3,-4.751375E-3,1.8208953E-2,8.612281E-3,-9.131122E-3,-9.074339E-4,-1.310667E-2,-1.1329473E-2],"categories":[],"categories_nodes":[],"categories_segments":[],"categories_sizes":[],"default_left":[0,0,0,0,0,0,0,0,0,0,0,0,0,0,0],"id":3,"left_children":[1,3,5,7,9,11,13,-1,-1,-1,-1,-1,-1,-1,-1],"loss_changes":[5.0580527E2,1.3661176E2,1.3332155E2,4.481569E1,4.8118164E1,4.82028E1,2.1932983E-1,0E0,0E0,0E0,0E0,0E0,0E0,0E0,0E0],"parents":[2147483647,0,0,1,1,2,2,3,3,4,4,5,5,6,6],"right_children":[2,4,6,8,10,12,14,-1,-1,-1,-1,-1,-1,-1,-1],"split_conditions":[1.7E1,1E0,1E0,6E0,6E0,1.39825E3,4.59035E3,6.109078E-3,-4.751375E-3,1.8208953E-2,8.612281E-3,-9.131122E-3,-9.074339E-4,-1.310667E-2,-1.1329473E-2],"split_indices":[0,5,9,0,0,3,3,0,0,0,0,0,0,0,0],"split_type":[0,0,0,0,0,0,0,0,0,0,0,0,0,0,0],"sum_hessian":[9.978863E2,3.6749072E2,6.3039557E2,1.5201022E2,2.154805E2,4.080884E2,2.2230714E2,8.471526E1,6.729495E1,1.1240149E2,1.0307902E2,9.104918E1,3.1703925E2,1.24709465E2,9.759767E1],"tree_param":{"num_deleted":"0","num_feature":"12","num_nodes":"15","size_leaf_vector":"1"}},{"base_weights":[-6.0946744E-2,-1.0188698E0,6.9464207E-1,-1.1649343E0,-5.767845E-1,4.7975343E-2,1.1577976E0,-1.2126729E-2,-7.786491E-3,-1.9933088E-3,-9.9096205E-3,7.87855E-3,-3.7218563E-3,1.8901674E-2,5.3848475E-3],"categories":[],"categories_nodes":[],"categories_segments":[],"categories_sizes":[],"default_left":[0,0,0,0,0,0,0,0,0,0,0,0,0,0,0],"id":4,"left_children":[1,3,5,7,9,11,13,-1,-1,-1,-1,-1,-1,-1,-1],"loss_changes":[7.212779E2,2.7701416E1,1.6681311E2,5.1282043E0,1.7171616E1,7.289745E1,1.4620578E2,0E0,0E0,0E0,0E0,0E0,0E0,0E0,0E0],"parents":[2147483647,0,0,1,1,2,2,3,3,4,4,5,5,6,6],"right_children":[2,4,6,8,10,12,14,-1,-1,-1,-1,-1,-1,-1,-1],"split_conditions":[1E0,9.355E1,6.86E1,1E0,1E0,4E0,1.4E1,-1.2126729E-2,-7.786491E-3,-1.9933088E-3,-9.9096205E-3,7.87855E-3,-3.7218563E-3,1.8901674E-2,5.3848475E-3],"split_indices":[2,1,1,6,9,0,0,0,0,0,0,0,0,0,0],"split_type":[0,0,0,0,0,0,0,0,0,0,0,0,0,0,0],"sum_hessian":[9.945432E2,4.3839932E2,5.5614386E2,3.282957E2,1.10103615E2,2.3255276E2,3.235911E2,2.9028214E2,3.801356E1,5.838067E1,5.1722942E1,8.391249E1,1.4864027E2,1.473225E2,1.762686E2],"tree_param":{"num_deleted":"0","num_feature":"12","num_nodes":"15","size_leaf_vector":"1"}},{"base_weights":[-7.161239E-2,-1.0264558E0,6.5675E-1,-1.1688646E0,-5.7989687E-1,-4.0636356E-3,1.1855414E0,-1.2034823E-2,-8.873034E-3,-2.6987134E-3,-6.6914074E-3,-2.0284043E-3,4.568988E-3,7.315053E-3,1.4730104E-2],"categories":[],"categories_nodes":[],"categories_segments":[],"categories_sizes":[],"default_left":[0,0,0,0,0,0,0,0,0,0,0,0,0,0,0],"id":5,"left_children":[1,3,5,7,9,11,13,-1,-1,-1,-1,-1,-1,-1,-1],"loss_changes":[6.969533E2,2.6897552E1,1.9867291E2,2.1270142E0,2.7751846E0,2.3340738E1,4.0144257E1,0E0,0E0,0E0,0E0,0E0,0E0,0E0,0E0],"parents":[2147483647,0,0,1,1,2,2,3,3,4,4,5,5,6,6],"right_children":[2,4,6,8,10,12,14,-1,-1,-1,-1,-1,-1,-1,-1],"split_conditions":[1E0,9.41E1,1E0,1E0,1E0,1E0,1E0,-1.2034823E-2,-8.873034E-3,-2.6987134E-3,-6.6914074E-3,-2.0284043E-3,4.568988E-3,7.315053E-3,1.4730104E-2],"split_indices":[2,1,4,6,10,6,6,0,0,0,0,0,0,0,0],"split_type":[0,0,0,0,0,0,0,0,0,0,0,0,0,0,0],"sum_hessian":[1.0001606E3,4.3261572E2,5.6754486E2,3.2678543E2,1.0583029E2,2.5272047E2,3.1482437E2,2.8809055E2,3.8694897E1,2.45544E1,8.1275894E1,1.7696806E2,7.5752426E1,1.23426285E2,1.9139809E2],"tree_param":{"num_deleted":"0","num_feature":"12","num_nodes":"15","size_leaf_vector":"1"}},{"base_weights":[-6.667618E-2,7.8047127E-1,-5.8798635E-1,4.090961E-2,1.7586193E0,-1.0508276E0,-1.369674E-2,5.759248E-3,-5.571383E-3,2.557317E-2,1.502434E-2,-1.2711879E-2,-9.117832E-3,4.347614E-3,-7.3311958E-3],"categories":[],"categories_nodes":[],"categories_segments":[],"categories_sizes":[],"default_left":[0,0,0,0,0,0,0,0,0,0,0,0,0,0,0],"id":6,"left_children":[1,3,5,7,9,11,13,-1,-1,-1,-1,-1,-1,-1,-1],"loss_changes":[4.364467E2,2.722978E2,1.6258347E2,6.925045E1,2.932257E1,9.219116E0,8.872141E1,0E0,0E0,0E0,0E0,0E0,0E0,0E0,0E0],"parents":[2147483647,0,0,1,1,2,2,3,3,4,4,5,5,6,6],"right_children":[2,4,6,8,10,12,14,-1,-1,-1,-1,-1,-1,-1,-1],"split_conditions":[1.8E1,1E0,1E0,6E0,1.183E2,1E0,5.6E1,5.759248E-3,-5.571383E-3,2.557317E-2,1.502434E-2,-1.2711879E-2,-9.117832E-3,4.347614E-3,-7.3311958E-3],"split_indices":[0,4,4,0,3,8,0,0,0,0,0,0,0,0,0],"split_type":[0,0,0,0,0,0,0,0,0,0,0,0,0,0,0],"sum_hessian":[9.862318E2,3.755129E2,6.107189E2,2.1442871E2,1.610842E2,3.3771338E2,2.730055E2,1.1319825E2,1.0123045E2,3.6938957E1,1.2414524E2,1.275025E2,2.1021088E2,1.6841704E2,1.0458846E2],"tree_param":{"num_deleted":"0","num_feature":"12","num_nodes":"15","size_leaf_vector":"1"}},{"base_weights":[-6.220959E-2,-1.0266645E0,7.0351595E-1,-1.1666541E0,-7.158408E-1,2.0300405E-2,1.2515922E0,-1.0007358E-2,-1.2846625E-2,-5.55548E-3,-1.2100803E-2,7.3933434E-3,-3.784343E-3,1.838782E-2,5.403972E-3],"categories":[],"categories_nodes":[],"categories_segments":[],"categories_sizes":[],"default_left":[0,0,0,0,0,0,0,0,0,0,0,0,0,0,0],"id":7,"left_children":[1,3,5,7,9,11,13,-1,-1,-1,-1,-1,-1,-1,-1],"loss_changes":[7.478035E2,1.8663269E1,2.1135214E2,4.732666E0,1.0556763E1,7.2611206E1,1.2980435E2,0E0,0E0,0E0,0E0,0E0,0E0,0E0,0E0],"parents":[2147483647,0,0,1,1,2,2,3,3,4,4,5,5,6,6],"right_children":[2,4,6,8,10,12,14,-1,-1,-1,-1,-1,-1,-1,-1],"split_conditions":[1E0,1E0,1E0,1E0,7.1E1,4E0,1.8E1,-1.0007358E-2,-1.2846625E-2,-5.55548E-3,-1.2100803E-2,7.3933434E-3,-3.784343E-3,1.838782E-2,5.403972E-3],"split_indices":[2,4,4,9,0,0,0,0,0,0,0,0,0,0,0],"split_type":[0,0,0,0,0,0,0,0,0,0,0,0,0,0,0],"sum_hessian":[1.0106094E3,4.4711435E2,5.6349506E2,3.0637488E2,1.4073944E2,2.512862E2,3.1220886E2,1.3127882E2,1.7509607E2,1.0787669E2,3.286276E1,8.933506E1,1.6195114E2,1.7014503E2,1.4206381E2],"tree_param":{"num_deleted":"0","num_feature":"12","num_nodes":"15","size_leaf_vector":"1"}},{"base_weights":[-5.729764E-2,-1.0044599E0,6.6671664E-1,-1.1449015E0,-5.778532E-1,1.1599386E-3,1.1863555E0,-9.845542E-3,-1.2787765E-2,-2.3305463E-3,-9.653698E-3,5.4099965E-3,-4.3996884E-3,1.7419824E-2,5.342598E-3],"categories":[],"categories_nodes":[],"categories_segments":[],"categories_sizes":[],"default_left":[0,0,0,0,0,0,0,0,0,0,0,0,0,0,0],"id":8,"left_children":[1,3,5,7,9,11,13,-1,-1,-1,-1,-1,-1,-1,-1],"loss_changes":[6.813343E2,2.512616E1,1.9476505E2,5.6702576E0,1.4288441E1,5.927531E1,1.13651184E2,0E0,0E0,0E0,0E0,0E0,0E0,0E0,0E0],"parents":[2147483647,0,0,1,1,2,2,3,3,4,4,5,5,6,6],"right_children":[2,4,6,8,10,12,14,-1,-1,-1,-1,-1,-1,-1,-1],"split_conditions":[1E0,9.41E1,1E0,1E0,1E0,2.2575E2,1.5639E3,-9.845542E-3,-1.2787765E-2,-2.3305463E-3,-9.653698E-3,5.4099965E-3,-4.3996884E-3,1.7419824E-2,5.342598E-3],"split_indices":[2,1,4,9,9,3,3,0,0,0,0,0,0,0,0],"split_type":[0,0,0,0,0,0,0,0,0,0,0,0,0,0,0],"sum_hessian":[9.915712E2,4.2941684E2,5.621544E2,3.2179578E2,1.07621056E2,2.4691118E2,3.1524323E2,1.5022253E2,1.7157324E2,5.779686E1,4.9824196E1,1.1093094E2,1.3598024E2,1.6930943E2,1.4593379E2],"tree_param":{"num_deleted":"0","num_feature":"12","num_nodes":"15","size_leaf_vector":"1"}},{"base_weights":[-8.0122374E-2,-1.0060858E0,6.2702125E-1,-1.1305181E0,-6.159291E-1,5.524218E-2,1.0496091E0,-9.7380085E-3,-1.2544881E-2,-4.4403845E-3,-1.0934763E-2,7.1267365E-3,-4.3982374E-3,1.7227113E-2,4.8648845E-3],"categories":[],"categories_nodes":[],"categories_segments":[],"categories_sizes":[],"default_left":[0,0,0,0,0,0,0,0,0,0,0,0,0,0,0],"id":9,"left_children":[1,3,5,7,9,11,13,-1,-1,-1,-1,-1,-1,-1,-1],"loss_changes":[6.523757E2,2.0246124E1,1.3645514E2,5.1094055E0,8.257221E0,7.880413E1,1.22279205E2,0E0,0E0,0E0,0E0,0E0,0E0,0E0,0E0],"parents":[2147483647,0,0,1,1,2,2,3,3,4,4,5,5,6,6],"right_children":[2,4,6,8,10,12,14,-1,-1,-1,-1,-1,-1,-1,-1],"split_conditions":[1E0,9.355E1,6.92E1,1E0,7.1E1,5E0,1.4E1,-9.7380085E-3,-1.2544881E-2,-4.4403845E-3,-1.0934763E-2,7.1267365E-3,-4.3982374E-3,1.7227113E-2,4.8648845E-3],"split_indices":[2,1,1,9,0,0,0,0,0,0,0,0,0,0,0],"split_type":[0,0,0,0,0,0,0,0,0,0,0,0,0,0,0],"sum_hessian":[9.9435077E2,4.3037585E2,5.639749E2,3.2486835E2,1.0550753E2,2.401596E2,3.2381528E2,1.473944E2,1.7747395E2,7.900126E1,2.6506268E1,1.02973976E2,1.3718564E2,1.4656537E2,1.7724991E2],"tree_param":{"num_deleted":"0","num_feature":"12","num_nodes":"15","size_leaf_vector":"1"}},{"base_weights":[-6.0288005E-2,-9.9714684E-1,6.568724E-1,-1.1400359E0,-6.777145E-1,2.0207407E-2,1.1631266E0,-9.912493E-3,-1.2448337E-2,-3.9825286E-3,-1.0000703E-2,7.6642763E-3,-3.8543567E-3,1.7539134E-2,5.9373784E-3],"categories":[],"categories_nodes":[],"categories_segments":[],"categories_sizes":[],"default_left":[0,0,0,0,0,0,0,0,0,0,0,0,0,0,0],"id":10,"left_children":[1,3,5,7,9,11,13,-1,-1,-1,-1,-1,-1,-1,-1],"loss_changes":[6.6689624E2,1.8869843E1,1.8120235E2,3.379425E0,1.1805889E1,7.599189E1,1.0431268E2,0E0,0E0,0E0,0E0,0E0,0E0,0E0,0E0],"parents":[2147483647,0,0,1,1,2,2,3,3,4,4,5,5,6,6],"right_children":[2,4,6,8,10,12,14,-1,-1,-1,-1,-1,-1,-1,-1],"split_conditions":[1E0,1E0,1E0,1E0,1E0,4E0,1.5E1,-9.912493E-3,-1.2448337E-2,-3.9825286E-3,-1.0000703E-2,7.6642763E-3,-3.8543567E-3,1.7539134E-2,5.9373784E-3],"split_indices":[2,4,4,9,9,0,0,0,0,0,0,0,0,0,0],"split_type":[0,0,0,0,0,0,0,0,0,0,0,0,0,0,0],"sum_hessian":[9.906103E2,4.2934595E2,5.6126434E2,2.9487363E2,1.3447232E2,2.4907172E2,3.121926E2,1.2618349E2,1.6869016E2,7.322575E1,6.1246567E1,8.7400505E1,1.6167122E2,1.5219627E2,1.5999632E2],"tree_param":{"num_deleted":"0","num_feature":"12","num_nodes":"15","size_leaf_vector":"1"}},{"base_weights":[-8.044694E-2,-1.0034711E0,6.2336594E-1,-1.1210788E0,-6.439869E-1,3.3371806E-2,1.0319974E0,-1.2422574E-2,-1.0117173E-2,-3.4850666E-3,-8.918309E-3,4.332944E-3,-3.4741508E-3,1.6348425E-2,5.134226E-3],"categories":[],"categories_nodes":[],"categories_segments":[],"categories_sizes":[],"default_left":[0,0,0,0,0,0,0,0,0,0,0,0,0,0,0],"id":11,"left_children":[1,3,5,7,9,11,13,-1,-1,-1,-1,-1,-1,-1,-1],"loss_changes":[6.472258E2,1.749942E1,1.362632E2,3.0288696E0,7.641739E0,3.5536537E1,1.0356708E2,0E0,0E0,0E0,0E0,0E0,0E0,0E0,0E0],"parents":[2147483647,0,0,1,1,2,2,3,3,4,4,5,5,6,6],"right_children":[2,4,6,8,10,12,14,-1,-1,-1,-1,-1,-1,-1,-1],"split_conditions":[1E0,9.355E1,6.86E1,4.065E1,6.58685E3,2.2575E2,1.14965E3,-1.2422574E-2,-1.0117173E-2,-3.4850666E-3,-8.918309E-3,4.332944E-3,-3.4741508E-3,1.6348425E-2,5.134226E-3],"split_indices":[2,1,1,1,3,3,3,0,0,0,0,0,0,0,0],"split_type":[0,0,0,0,0,0,0,0,0,0,0,0,0,0,0],"sum_hessian":[9.9432654E2,4.2998788E2,5.643387E2,3.2239542E2,1.0759246E2,2.3136655E2,3.3297214E2,1.4802092E2,1.7437451E2,5.017722E1,5.7415245E1,1.1278055E2,1.18586E2,1.5297989E2,1.7999225E2],"tree_param":{"num_deleted":"0","num_feature":"12","num_nodes":"15","size_leaf_vector":"1"}},{"base_weights":[-5.71289E-2,7.240597E-1,-5.7175136E-1,-9.328075E-3,1.6211092E0,-1.02089E0,-4.1213617E-2,4.2895884E-3,-5.2119647E-3,2.3091149E-2,1.4212447E-2,-8.283993E-3,-1.2373237E-2,3.637953E-3,-6.3314424E-3],"categories":[],"categories_nodes":[],"categories_segments":[],"categories_sizes":[],"default_left":[0,0,0,0,0,0,0,0,0,0,0,0,0,0,0],"id":12,"left_children":[1,3,5,7,9,11,13,-1,-1,-1,-1,-1,-1,-1,-1],"loss_changes":[4.019305E2,2.6125458E2,1.4356386E2,4.9460365E1,2.1279938E1,1.25703125E1,6.671842E1,0E0,0E0,0E0,0E0,0E0,0E0,0E0,0E0],"parents":[2147483647,0,0,1,1,2,2,3,3,4,4,5,5,6,6],"right_children":[2,4,6,8,10,12,14,-1,-1,-1,-1,-1,-1,-1,-1],"split_conditions":[1.8E1,1E0,1E0,6E0,2E0,1E0,5.5E1,4.2895884E-3,-5.2119647E-3,2.3091149E-2,1.4212447E-2,-8.283993E-3,-1.2373237E-2,3.637953E-3,-6.3314424E-3],"split_indices":[0,4,4,0,0,9,0,0,0,0,0,0,0,0,0],"split_type":[0,0,0,0,0,0,0,0,0,0,0,0,0,0,0],"sum_hessian":[9.977546E2,3.9608975E2,6.016648E2,2.184689E2,1.7762085E2,3.253274E2,2.7633743E2,1.1778099E2,1.0068791E2,3.7607796E1,1.4001306E2,1.74743E2,1.5058438E2,1.6430357E2,1.1203387E2],"tree_param":{"num_deleted":"0","num_feature":"12","num_nodes":"15","size_leaf_vector":"1"}},{"base_weights":[-8.967047E-2,7.3264134E-1,-5.927401E-1,1.8721676E-1,1.3829167E0,-8.9048815E-1,1.598385E-1,5.7590986E-3,-2.2401414E-3,1.657654E-2,9.221256E-3,-6.577557E-3,-1.1953278E-2,3.3605336E-3,-9.616237E-3],"categories":[],"categories_nodes":[],"categories_segments":[],"categories_sizes":[],"default_left":[0,0,0,0,0,0,0,0,0,0,0,0,0,0,0],"id":13,"left_children":[1,3,5,7,9,11,13,-1,-1,-1,-1,-1,-1,-1,-1],"loss_changes":[4.1445264E2,1.3463278E2,1.3940598E2,3.337525E1,2.0414368E1,3.0817688E1,3.5307487E1,0E0,0E0,0E0,0E0,0E0,0E0,0E0,0E0],"parents":[2147483647,0,0,1,1,2,2,3,3,4,4,5,5,6,6],"right_children":[2,4,6,8,10,12,14,-1,-1,-1,-1,-1,-1,-1,-1],"split_conditions":[1.7E1,1E0,1E0,6E0,7E0,1E0,1E0,5.7590986E-3,-2.2401414E-3,1.657654E-2,9.221256E-3,-6.577557E-3,-1.1953278E-2,3.3605336E-3,-9.616237E-3],"split_indices":[0,6,6,0,0,9,9,0,0,0,0,0,0,0,0],"split_type":[0,0,0,0,0,0,0,0,0,0,0,0,0,0,0],"sum_hessian":[9.998176E2,3.793235E2,6.204941E2,2.0699359E2,1.723299E2,4.444643E2,1.760298E2,1.0620694E2,1.0078665E2,1.063334E2,6.5996506E1,2.5383191E2,1.9063239E2,1.527315E2,2.3298294E1],"tree_param":{"num_deleted":"0","num_feature":"12","num_nodes":"15","size_leaf_vector":"1"}},{"base_weights":[-8.6329125E-2,-1.0050541E0,6.0458434E-1,-1.1466424E0,-5.1774824E-1,1.7731337E-2,1.0097357E0,-1.2590916E-2,-1.0483291E-2,-2.802158E-3,-1.0868707E-2,5.2457703E-3,-3.9780177E-3,1.6340896E-2,3.920357E-3],"categories":[],"categories_nodes":[],"categories_segments":[],"categories_sizes":[],"default_left":[0,0,0,0,0,0,0,0,0,0,0,0,0,0,0],"id":14,"left_children":[1,3,5,7,9,11,13,-1,-1,-1,-1,-1,-1,-1,-1],"loss_changes":[6.305995E2,2.8825653E1,1.3481873E2,2.3235168E0,1.2919157E1,4.9203568E1,1.28738E2,0E0,0E0,0E0,0E0,0E0,0E0,0E0,0E0],"parents":[2147483647,0,0,1,1,2,2,3,3,4,4,5,5,6,6],"right_children":[2,4,6,8,10,12,14,-1,-1,-1,-1,-1,-1,-1,-1],"split_conditions":[1E0,9.525E1,6.745E1,4.065E1,7.1E1,6E0,1.6E1,-1.2590916E-2,-1.0483291E-2,-2.802158E-3,-1.0868707E-2,5.2457703E-3,-3.9780177E-3,1.6340896E-2,3.920357E-3],"split_indices":[2,1,1,1,0,0,0,0,0,0,0,0,0,0,0],"split_type":[0,0,0,0,0,0,0,0,0,0,0,0,0,0,0],"sum_hessian":[9.91489E2,4.253868E2,5.661022E2,3.2856744E2,9.681934E1,2.3163197E2,3.344702E2,1.4775766E2,1.808098E2,6.936225E1,2.7457094E1,1.0423235E2,1.2739962E2,1.6552084E2,1.6894937E2],"tree_param":{"num_deleted":"0","num_feature":"12","num_nodes":"15","size_leaf_vector":"1"}},{"base_weights":[-6.2269874E-2,-9.470247E-1,6.046551E-1,-1.1071463E0,-4.905582E-1,8.004264E-2,9.6738815E-1,-9.389468E-3,-1.23910485E-2,-1.3649508E-3,-8.738213E-3,8.071006E-3,-3.1826182E-3,1.4789636E-2,4.1090725E-3],"categories":[],"categories_nodes":[],"categories_segments":[],"categories_sizes":[],"default_left":[0,0,0,0,0,0,0,0,0,0,0,0,0,0,0],"id":15,"left_children":[1,3,5,7,9,11,13,-1,-1,-1,-1,-1,-1,-1,-1],"loss_changes":[5.8366296E2,3.0528748E1,1.07260376E2,5.8041687E0,1.5105413E1,6.73463E1,9.430301E1,0E0,0E0,0E0,0E0,0E0,0E0,0E0,0E0],"parents":[2147483647,0,0,1,1,2,2,3,3,4,4,5,5,6,6],"right_children":[2,4,6,8,10,12,14,-1,-1,-1,-1,-1,-1,-1,-1],"split_conditions":[1E0,9.355E1,6.86E1,1E0,1E0,4E0,1.8E1,-9.389468E-3,-1.23910485E-2,-1.3649508E-3,-8.738213E-3,8.071006E-3,-3.1826182E-3,1.4789636E-2,4.1090725E-3],"split_indices":[2,1,1,9,9,0,0,0,0,0,0,0,0,0,0],"split_type":[0,0,0,0,0,0,0,0,0,0,0,0,0,0,0],"sum_hessian":[9.871797E2,4.2411758E2,5.6306213E2,3.1292334E2,1.1119423E2,2.3067004E2,3.323921E2,1.4113841E2,1.7178494E2,5.8503826E1,5.2690403E1,8.12788E1,1.4939124E2,1.7231989E2,1.600722E2],"tree_param":{"num_deleted":"0","num_feature":"12","num_nodes":"15","size_leaf_vector":"1"}},{"base_weights":[-6.16496E-2,7.028568E-1,-5.706201E-1,-9.9218665E-3,1.557399E0,-1.0321454E0,-3.0556358E-2,6.7156553E-3,-3.913416E-3,2.2424895E-2,1.3600763E-2,-8.605594E-3,-1.2247526E-2,5.637557E-3,-4.8617753E-3],"categories":[],"categories_nodes":[],"categories_segments":[],"categories_sizes":[],"default_left":[0,0,0,0,0,0,0,0,0,0,0,0,0,0,0],"id":16,"left_children":[1,3,5,7,9,11,13,-1,-1,-1,-1,-1,-1,-1,-1],"loss_changes":[3.7985358E2,2.3768437E2,1.460258E2,5.582055E1,2.0939545E1,9.387268E0,7.366828E1,0E0,0E0,0E0,0E0,0E0,0E0,0E0,0E0],"parents":[2147483647,0,0,1,1,2,2,3,3,4,4,5,5,6,6],"right_children":[2,4,6,8,10,12,14,-1,-1,-1,-1,-1,-1,-1,-1],"split_conditions":[1.8E1,1E0,1E0,3E0,2E0,1E0,4.4E1,6.7156553E-3,-3.913416E-3,2.2424895E-2,1.3600763E-2,-8.605594E-3,-1.2247526E-2,5.637557E-3,-4.8617753E-3],"split_indices":[0,4,4,0,0,9,0,0,0,0,0,0,0,0,0],"split_type":[0,0,0,0,0,0,0,0,0,0,0,0,0,0,0],"sum_hessian":[9.741775E2,3.8919727E2,5.849802E2,2.1273889E2,1.7645837E2,3.149341E2,2.7004614E2,7.606748E1,1.3667142E2,3.714141E1,1.3931696E2,1.6944789E2,1.454862E2,1.1708421E2,1.5296193E2],"tree_param":{"num_deleted":"0","num_feature":"12","num_nodes":"15","size_leaf_vector":"1"}},{"base_weights":[-6.465119E-2,-9.796344E-1,6.101136E-1,-7.272838E-1,-1.1935083E0,7.2794095E-2,9.893532E-1,-9.855043E-3,-2.8889135E-3,-1.2378762E-2,-8.8411495E-3,6.006726E-3,-3.8332033E-3,1.5021824E-2,4.649404E-3],"categories":[],"categories_nodes":[],"categories_segments":[],"categories_sizes":[],"default_left":[0,0,0,0,0,0,0,0,0,0,0,0,0,0,0],"id":17,"left_children":[1,3,5,7,9,11,13,-1,-1,-1,-1,-1,-1,-1,-1],"loss_changes":[6.035693E2,2.152536E1,1.1459494E2,2.1551445E1,1.9669495E0,5.655013E1,8.799786E1,0E0,0E0,0E0,0E0,0E0,0E0,0E0,0E0],"parents":[2147483647,0,0,1,1,2,2,3,3,4,4,5,5,6,6],"right_children":[2,4,6,8,10,12,14,-1,-1,-1,-1,-1,-1,-1,-1],"split_conditions":[1E0,1E0,6.86E1,8.185E1,1.0575E2,6E0,1.6E1,-9.855043E-3,-2.8889135E-3,-1.2378762E-2,-8.8411495E-3,6.006726E-3,-3.8332033E-3,1.5021824E-2,4.649404E-3],"split_indices":[2,9,1,1,1,0,0,0,0,0,0,0,0,0,0],"split_type":[0,0,0,0,0,0,0,0,0,0,0,0,0,0,0],"sum_hessian":[9.756328E2,4.139133E2,5.6171954E2,1.9189552E2,2.2201778E2,2.3291275E2,3.288068E2,1.19978294E2,7.191723E1,1.915482E2,3.0469566E1,1.07816124E2,1.2509662E2,1.6529672E2,1.6351007E2],"tree_param":{"num_deleted":"0","num_feature":"12","num_nodes":"15","size_leaf_vector":"1"}},{"base_weights":[-7.5115636E-2,-9.6533763E-1,5.755144E-1,-1.0654614E0,-4.6408156E-1,-2.807247E-2,1.0359002E0,-1.12167355E-2,-6.9415853E-3,6.93413E-5,-8.630765E-3,5.3578303E-3,-4.7679823E-3,1.3087346E-2,1.6871403E-3],"categories":[],"categories_nodes":[],"categories_segments":[],"categories_sizes":[],"default_left":[0,0,0,0,0,0,0,0,0,0,0,0,0,0,0],"id":18,"left_children":[1,3,5,7,9,11,13,-1,-1,-1,-1,-1,-1,-1,-1],"loss_changes":[5.741834E2,2.0512115E1,1.592031E2,6.4868774E0,1.3435287E1,6.321381E1,7.666858E1,0E0,0E0,0E0,0E0,0E0,0E0,0E0,0E0],"parents":[2147483647,0,0,1,1,2,2,3,3,4,4,5,5,6,6],"right_children":[2,4,6,8,10,12,14,-1,-1,-1,-1,-1,-1,-1,-1],"split_conditions":[1E0,1.015E2,1E0,1E0,1E0,6E0,3.4E1,-1.12167355E-2,-6.9415853E-3,6.93413E-5,-8.630765E-3,5.3578303E-3,-4.7679823E-3,1.3087346E-2,1.6871403E-3],"split_indices":[2,1,4,6,9,0,0,0,0,0,0,0,0,0,0],"split_type":[0,0,0,0,0,0,0,0,0,0,0,0,0,0,0],"sum_hessian":[9.8937067E2,4.175609E2,5.7180975E2,3.4710297E2,7.045797E1,2.4783101E2,3.2397876E2,2.9970868E2,4.7394268E1,3.2763317E1,3.7694653E1,1.09740425E2,1.3809059E2,2.4605551E2,7.7923256E1],"tree_param":{"num_deleted":"0","num_feature":"12","num_nodes":"15","size_leaf_vector":"1"}},{"base_weights":[-8.2727E-2,-9.504196E-1,5.5294365E-1,-1.0866154E0,-5.52613E-1,1.1416293E-1,1.0144837E0,-9.176067E-3,-1.22181615E-2,-2.3243676E-3,-9.248434E-3,-5.905797E-3,3.4323537E-3,1.2948948E-2,4.4393674E-3],"categories":[],"categories_nodes":[],"categories_segments":[],"categories_sizes":[],"default_left":[0,0,0,0,0,0,0,0,0,0,0,0,0,0,0],"id":19,"left_children":[1,3,5,7,9,11,13,-1,-1,-1,-1,-1,-1,-1,-1],"loss_changes":[5.4236163E2,2.1924164E1,1.14835175E2,5.932068E0,1.2664547E1,4.73601E1,4.3662964E1,0E0,0E0,0E0,0E0,0E0,0E0,0E0,0E0],"parents":[2147483647,0,0,1,1,2,2,3,3,4,4,5,5,6,6],"right_children":[2,4,6,8,10,12,14,-1,-1,-1,-1,-1,-1,-1,-1],"split_conditions":[1E0,9.355E1,1E0,1E0,1E0,2.95E1,2.1E1,-9.176067E-3,-1.22181615E-2,-2.3243676E-3,-9.248434E-3,-5.905797E-3,3.4323537E-3,1.2948948E-2,4.4393674E-3],"split_indices":[2,1,6,9,9,1,0,0,0,0,0,0,0,0,0],"split_type":[0,0,0,0,0,0,0,0,0,0,0,0,0,0,0],"sum_hessian":[9.813581E2,4.147406E2,5.666175E2,3.0767227E2,1.07068344E2,2.9111002E2,2.755075E2,1.402005E2,1.6747177E2,5.8432076E1,4.8636265E1,7.102453E1,2.2008548E2,1.8386995E2,9.163755E1],"tree_param":{"num_deleted":"0","num_feature":"12","num_nodes":"15","size_leaf_vector":"1"}},{"base_weights":[-5.712059E-2,-9.541288E-1,5.862817E-1,-7.052497E-1,-1.1705091E0,6.2577724E-3,9.739818E-1,-8.920209E-3,6.1960676E-4,-1.2349312E-2,-9.441579E-3,6.793206E-3,-3.1346295E-3,1.5111509E-2,5.535809E-3],"categories":[],"categories_nodes":[],"categories_segments":[],"categories_sizes":[],"default_left":[0,0,0,0,0,0,0,0,0,0,0,0,0,0,0],"id":20,"left_children":[1,3,5,7,9,11,13,-1,-1,-1,-1,-1,-1,-1,-1],"loss_changes":[5.671675E2,2.1277863E1,1.2869308E2,2.7768433E1,2.0135193E0,4.9770157E1,7.6626526E1,0E0,0E0,0E0,0E0,0E0,0E0,0E0,0E0],"parents":[2147483647,0,0,1,1,2,2,3,3,4,4,5,5,6,6],"right_children":[2,4,6,8,10,12,14,-1,-1,-1,-1,-1,-1,-1,-1],"split_conditions":[1E0,1E0,6.9E1,9.95E1,9.23E1,3E0,1.2E1,-8.920209E-3,6.1960676E-4,-1.2349312E-2,-9.441579E-3,6.793206E-3,-3.1346295E-3,1.5111509E-2,5.535809E-3],"split_indices":[2,9,1,1,1,0,0,0,0,0,0,0,0,0,0],"split_type":[0,0,0,0,0,0,0,0,0,0,0,0,0,0,0],"sum_hessian":[9.807563E2,4.094429E2,5.713134E2,1.9240239E2,2.1704051E2,2.2929286E2,3.4202054E2,1.5460289E2,3.77995E1,1.6548563E2,5.1554882E1,7.348034E1,1.5581252E2,1.4901784E2,1.9300272E2],"tree_param":{"num_deleted":"0","num_feature":"12","num_nodes":"15","size_leaf_vector":"1"}},{"base_weights":[-6.863199E-2,-9.669424E-1,5.782177E-1,-1.1341884E0,-4.6695197E-1,3.6471594E-2,9.944039E-1,-1.2504549E-2,-1.0307195E-2,-1.2041354E-3,-8.676203E-3,5.522807E-3,-4.0490488E-3,1.5269328E-2,5.3295777E-3],"categories":[],"categories_nodes":[],"categories_segments":[],"categories_sizes":[],"default_left":[0,0,0,0,0,0,0,0,0,0,0,0,0,0,0],"id":21,"left_children":[1,3,5,7,9,11,13,-1,-1,-1,-1,-1,-1,-1,-1],"loss_changes":[5.710513E2,3.3870758E1,1.2879822E2,2.4111328E0,1.4448715E1,5.697965E1,7.858664E1,0E0,0E0,0E0,0E0,0E0,0E0,0E0,0E0],"parents":[2147483647,0,0,1,1,2,2,3,3,4,4,5,5,6,6],"right_children":[2,4,6,8,10,12,14,-1,-1,-1,-1,-1,-1,-1,-1],"split_conditions":[1E0,9.39E1,1E0,4.065E1,1E0,2.2575E2,1.14965E3,-1.2504549E-2,-1.0307195E-2,-1.2041354E-3,-8.676203E-3,5.522807E-3,-4.0490488E-3,1.5269328E-2,5.3295777E-3],"split_indices":[2,1,4,1,9,3,3,0,0,0,0,0,0,0,0],"split_type":[0,0,0,0,0,0,0,0,0,0,0,0,0,0,0],"sum_hessian":[9.8079285E2,4.103817E2,5.7041113E2,3.065671E2,1.0381459E2,2.4829514E2,3.2211603E2,1.3913637E2,1.6743076E2,5.636499E1,4.7449604E1,1.1437774E2,1.3391739E2,1.4846822E2,1.7364781E2],"tree_param":{"num_deleted":"0","num_feature":"12","num_nodes":"15","size_leaf_vector":"1"}},{"base_weights":[-7.63424E-2,-9.760738E-1,5.328035E-1,-1.095418E0,-5.981071E-1,-6.8833776E-2,9.882879E-1,-9.357995E-3,-1.2208275E-2,-2.5089665E-3,-9.722449E-3,-2.8659056E-3,3.993522E-3,6.663379E-3,1.1798564E-2],"categories":[],"categories_nodes":[],"categories_segments":[],"categories_sizes":[],"default_left":[0,0,0,0,0,0,0,0,0,0,0,0,0,0,0],"id":22,"left_children":[1,3,5,7,9,11,13,-1,-1,-1,-1,-1,-1,-1,-1],"loss_changes":[5.346564E2,1.7108398E1,1.5949736E2,4.824707E0,1.2318657E1,2.576611E1,1.9639069E1,0E0,0E0,0E0,0E0,0E0,0E0,0E0,0E0],"parents":[2147483647,0,0,1,1,2,2,3,3,4,4,5,5,6,6],"right_children":[2,4,6,8,10,12,14,-1,-1,-1,-1,-1,-1,-1,-1],"split_conditions":[1E0,9.525E1,1E0,1E0,1E0,1E0,1E0,-9.357995E-3,-1.2208275E-2,-2.5089665E-3,-9.722449E-3,-2.8659056E-3,3.993522E-3,6.663379E-3,1.1798564E-2],"split_indices":[2,1,4,9,9,6,6,0,0,0,0,0,0,0,0],"split_type":[0,0,0,0,0,0,0,0,0,0,0,0,0,0,0],"sum_hessian":[9.73581E2,3.927993E2,5.807817E2,2.9709302E2,9.5706276E1,2.506085E2,3.3017322E2,1.344411E2,1.626519E2,5.0505943E1,4.520033E1,1.7131602E2,7.929248E1,1.2484205E2,2.0533116E2],"tree_param":{"num_deleted":"0","num_feature":"12","num_nodes":"15","size_leaf_vector":"1"}},{"base_weights":[-6.966056E-2,-9.600524E-1,5.4664594E-1,-1.0995456E0,-5.0882095E-1,-4.4275384E-2,9.977887E-1,-1.2206465E-2,-1.0107575E-2,-1.1530287E-3,-7.936036E-3,4.0971083E-3,-4.217835E-3,1.4977219E-2,3.875868E-3],"categories":[],"categories_nodes":[],"categories_segments":[],"categories_sizes":[],"default_left":[0,0,0,0,0,0,0,0,0,0,0,0,0,0,0],"id":23,"left_children":[1,3,5,7,9,11,13,-1,-1,-1,-1,-1,-1,-1,-1],"loss_changes":[5.436271E2,2.4944977E1,1.5613417E2,2.0849E0,1.0839928E1,4.3779938E1,1.0071915E2,0E0,0E0,0E0,0E0,0E0,0E0,0E0,0E0],"parents":[2147483647,0,0,1,1,2,2,3,3,4,4,5,5,6,6],"right_children":[2,4,6,8,10,12,14,-1,-1,-1,-1,-1,-1,-1,-1],"split_conditions":[1E0,9.525E1,1E0,3.09E1,6.50615E3,2.2035E2,1.5386E3,-1.2206465E-2,-1.0107575E-2,-1.1530287E-3,-7.936036E-3,4.0971083E-3,-4.217835E-3,1.4977219E-2,3.875868E-3],"split_indices":[2,1,4,1,3,3,3,0,0,0,0,0,0,0,0],"split_type":[0,0,0,0,0,0,0,0,0,0,0,0,0,0,0],"sum_hessian":[9.887003E2,4.0419418E2,5.8450616E2,3.0765057E2,9.65436E1,2.5344179E2,3.3106436E2,1.2475095E2,1.8289963E2,4.1123394E1,5.5420208E1,1.150268E2,1.3841498E2,1.8117485E2,1.498895E2],"tree_param":{"num_deleted":"0","num_feature":"12","num_nodes":"15","size_leaf_vector":"1"}},{"base_weights":[-6.3763894E-2,-9.1778374E-1,5.231418E-1,-1.079995E0,-5.4551905E-1,-6.595412E-2,9.7149676E-1,-9.126705E-3,-1.2027426E-2,-2.7339004E-3,-9.093638E-3,-5.252588E-3,1.1355699E-3,4.6332916E-3,1.1084254E-2],"categories":[],"categories_nodes":[],"categories_segments":[],"categories_sizes":[],"default_left":[0,0,0,0,0,0,0,0,0,0,0,0,0,0,0],"id":24,"left_children":[1,3,5,7,9,11,13,-1,-1,-1,-1,-1,-1,-1,-1],"loss_changes":[4.8961374E2,2.3434967E1,1.529979E2,4.572632E0,1.19067E1,2.0768902E1,2.2368744E1,0E0,0E0,0E0,0E0,0E0,0E0,0E0,0E0],"parents":[2147483647,0,0,1,1,2,2,3,3,4,4,5,5,6,6],"right_children":[2,4,6,8,10,12,14,-1,-1,-1,-1,-1,-1,-1,-1],"split_conditions":[1E0,1E0,1E0,1E0,1E0,2.305E1,1E0,-9.126705E-3,-1.2027426E-2,-2.7339004E-3,-9.093638E-3,-5.252588E-3,1.1355699E-3,4.6332916E-3,1.1084254E-2],"split_indices":[2,4,4,9,9,1,5,0,0,0,0,0,0,0,0],"split_type":[0,0,0,0,0,0,0,0,0,0,0,0,0,0,0],"sum_hessian":[9.748683E2,3.9684555E2,5.7802277E2,2.750804E2,1.21765144E2,2.5017258E2,3.278502E2,1.1997321E2,1.551072E2,7.066462E1,5.110052E1,6.975877E1,1.804138E2,7.052023E1,2.5732993E2],"tree_param":{"num_deleted":"0","num_feature":"12","num_nodes":"15","size_leaf_vector":"1"}},{"base_weights":[-4.759102E-2,-9.476618E-1,5.606999E-1,-1.0998381E0,-4.9286047E-1,3.0245354E-2,9.592262E-1,-1.2298388E-2,-9.965219E-3,-9.471719E-4,-8.730783E-3,4.067085E-3,-4.220932E-3,1.3282454E-2,4.0915417E-3],"categories":[],"categories_nodes":[],"categories_segments":[],"categories_sizes":[],"default_left":[0,0,0,0,0,0,0,0,0,0,0,0,0,0,0],"id":25,"left_children":[1,3,5,7,9,11,13,-1,-1,-1,-1,-1,-1,-1,-1],"loss_changes":[5.356949E2,2.6765472E1,1.2340712E2,2.734314E0,1.5166372E1,4.300286E1,6.71279E1,0E0,0E0,0E0,0E0,0E0,0E0,0E0,0E0],"parents":[2147483647,0,0,1,1,2,2,3,3,4,4,5,5,6,6],"right_children":[2,4,6,8,10,12,14,-1,-1,-1,-1,-1,-1,-1,-1],"split_conditions":[1E0,9.355E1,1E0,3.09E1,6.58685E3,3.1445E2,1.78965E3,-1.2298388E-2,-9.965219E-3,-9.471719E-4,-8.730783E-3,4.067085E-3,-4.220932E-3,1.3282454E-2,4.0915417E-3],"split_indices":[2,1,4,1,3,3,3,0,0,0,0,0,0,0,0],"split_type":[0,0,0,0,0,0,0,0,0,0,0,0,0,0,0],"sum_hessian":[9.764589E2,3.9356058E2,5.828983E2,2.9382767E2,9.973291E1,2.5052087E2,3.3237747E2,1.2528302E2,1.6854465E2,4.9328217E1,5.0404694E1,1.3678287E2,1.13738E2,1.9807976E2,1.342977E2],"tree_param":{"num_deleted":"0","num_feature":"12","num_nodes":"15","size_leaf_vector":"1"}},{"base_weights":[-2.092979E-2,6.77825E-1,-5.0672483E-1,7.285829E-2,1.3080374E0,-7.9050463E-1,1.8583299E-1,6.8992656E-3,-4.135465E-3,2.0440897E-2,1.1103925E-2,-9.82168E-3,-4.549514E-3,-4.8485855E-3,4.4004032E-3],"categories":[],"categories_nodes":[],"categories_segments":[],"categories_sizes":[],"default_left":[0,0,0,0,0,0,0,0,0,0,0,0,0,0,0],"id":26,"left_children":[1,3,5,7,9,11,13,-1,-1,-1,-1,-1,-1,-1,-1],"loss_changes":[3.3109406E2,1.5241724E2,1.1322121E2,6.186292E1,2.6224152E1,2.5812592E1,2.8862822E1,0E0,0E0,0E0,0E0,0E0,0E0,0E0,0E0],"parents":[2147483647,0,0,1,1,2,2,3,3,4,4,5,5,6,6],"right_children":[2,4,6,8,10,12,14,-1,-1,-1,-1,-1,-1,-1,-1],"split_conditions":[1.8E1,6.86E1,1E0,4E0,2E0,8.375E1,7.48E1,6.8992656E-3,-4.135465E-3,2.0440897E-2,1.1103925E-2,-9.82168E-3,-4.549514E-3,-4.8485855E-3,4.4004032E-3],"split_indices":[0,1,6,0,0,1,1,0,0,0,0,0,0,0,0],"split_type":[0,0,0,0,0,0,0,0,0,0,0,0,0,0,0],"sum_hessian":[9.733675E2,3.9902505E2,5.743424E2,2.0415956E2,1.9486551E2,4.0730518E2,1.6703723E2,8.980795E1,1.143516E2,3.927152E1,1.55594E2,2.5800766E2,1.4929753E2,4.5660603E1,1.21376625E2],"tree_param":{"num_deleted":"0","num_feature":"12","num_nodes":"15","size_leaf_vector":"1"}},{"base_weights":[-6.361205E-2,-9.339827E-1,5.167619E-1,-1.042567E0,-4.6299055E-1,-5.143847E-2,9.229812E-1,-1.1956279E-2,-9.192712E-3,-3.5768628E-4,-8.521716E-3,5.4880655E-3,-4.675597E-3,1.5958177E-2,5.3072893E-3],"categories":[],"categories_nodes":[],"categories_segments":[],"categories_sizes":[],"default_left":[0,0,0,0,0,0,0,0,0,0,0,0,0,0,0],"id":27,"left_children":[1,3,5,7,9,11,13,-1,-1,-1,-1,-1,-1,-1,-1],"loss_changes":[4.9969128E2,1.9754913E1,1.3704622E2,4.9544983E0,1.2595108E1,6.229731E1,9.051199E1,0E0,0E0,0E0,0E0,0E0,0E0,0E0,0E0],"parents":[2147483647,0,0,1,1,2,2,3,3,4,4,5,5,6,6],"right_children":[2,4,6,8,10,12,14,-1,-1,-1,-1,-1,-1,-1,-1],"split_conditions":[1E0,1E2,1E0,4.78E1,1E0,5E0,9E0,-1.1956279E-2,-9.192712E-3,-3.5768628E-4,-8.521716E-3,5.4880655E-3,-4.675597E-3,1.5958177E-2,5.3072893E-3],"split_indices":[2,1,4,1,9,0,0,0,0,0,0,0,0,0,0],"split_type":[0,0,0,0,0,0,0,0,0,0,0,0,0,0,0],"sum_hessian":[9.87257E2,3.9471088E2,5.9254614E2,3.1977512E2,7.493576E1,2.473867E2,3.4515945E2,1.3878656E2,1.8098856E2,3.6242558E1,3.8693207E1,1.01154655E2,1.4623204E2,1.2598576E2,2.1917369E2],"tree_param":{"num_deleted":"0","num_feature":"12","num_nodes":"15","size_leaf_vector":"1"}},{"base_weights":[-4.667897E-2,-9.2328364E-1,5.625816E-1,-1.122593E0,-7.097494E-1,1.9201483E-1,9.582502E-1,-1.1953266E-2,-9.704526E-3,-8.276273E-3,-3.4790179E-3,-4.0255645E-3,3.5019368E-3,4.5384457E-3,1.1208321E-2],"categories":[],"categories_nodes":[],"categories_segments":[],"categories_sizes":[],"default_left":[0,0,0,0,0,0,0,0,0,0,0,0,0,0,0],"id":28,"left_children":[1,3,5,7,9,11,13,-1,-1,-1,-1,-1,-1,-1,-1],"loss_changes":[5.212697E2,1.623471E1,8.424936E1,1.1114197E0,8.068634E0,2.822506E1,2.2309479E1,0E0,0E0,0E0,0E0,0E0,0E0,0E0,0E0],"parents":[2147483647,0,0,1,1,2,2,3,3,4,4,5,5,6,6],"right_children":[2,4,6,8,10,12,14,-1,-1,-1,-1,-1,-1,-1,-1],"split_conditions":[1E0,6.95E1,1E0,4.065E1,1E0,2.51E1,1E0,-1.1953266E-2,-9.704526E-3,-8.276273E-3,-3.4790179E-3,-4.0255645E-3,3.5019368E-3,4.5384457E-3,1.1208321E-2],"split_indices":[2,1,6,1,6,1,5,0,0,0,0,0,0,0,0],"split_type":[0,0,0,0,0,0,0,0,0,0,0,0,0,0,0],"sum_hessian":[9.7404047E2,3.9918185E2,5.748586E2,2.0426605E2,1.949158E2,2.9761243E2,2.7724615E2,1.3355891E2,7.070713E1,1.4605028E2,4.8865524E1,6.2214027E1,2.353984E2,6.850445E1,2.0874171E2],"tree_param":{"num_deleted":"0","num_feature":"12","num_nodes":"15","size_leaf_vector":"1"}},{"base_weights":[-8.244717E-2,-8.996811E-1,4.8184204E-1,-1.0464865E0,-5.849782E-1,-2.2087187E-2,8.626138E-1,-8.58195E-3,-1.186084E-2,-4.355119E-3,-1.06376195E-2,5.9034703E-3,-3.7843182E-3,1.3331133E-2,3.917782E-3],"categories":[],"categories_nodes":[],"categories_segments":[],"categories_sizes":[],"default_left":[0,0,0,0,0,0,0,0,0,0,0,0,0,0,0],"id":29,"left_children":[1,3,5,7,9,11,13,-1,-1,-1,-1,-1,-1,-1,-1],"loss_changes":[4.5094897E2,1.7839111E1,1.11031906E2,6.1071777E0,8.790367E0,5.4778347E1,7.2486176E1,0E0,0E0,0E0,0E0,0E0,0E0,0E0,0E0],"parents":[2147483647,0,0,1,1,2,2,3,3,4,4,5,5,6,6],"right_children":[2,4,6,8,10,12,14,-1,-1,-1,-1,-1,-1,-1,-1],"split_conditions":[1E0,1E0,1E0,1E0,7.1E1,4E0,1.5E1,-8.58195E-3,-1.186084E-2,-4.355119E-3,-1.06376195E-2,5.9034703E-3,-3.7843182E-3,1.3331133E-2,3.917782E-3],"split_indices":[2,4,4,9,0,0,0,0,0,0,0,0,0,0,0],"split_type":[0,0,0,0,0,0,0,0,0,0,0,0,0,0,0],"sum_hessian":[9.759257E2,3.983784E2,5.7754736E2,2.7006897E2,1.2830943E2,2.489795E2,3.2856784E2,1.18024E2,1.5204495E2,9.923878E1,2.9070656E1,9.1340256E1,1.5763925E2,1.6342656E2,1.6514128E2],"tree_param":{"num_deleted":"0","num_feature":"12","num_nodes":"15","size_leaf_vector":"1"}},{"base_weights":[-7.722483E-2,-9.357068E-1,5.017923E-1,-1.0765274E0,-6.312056E-1,-1.8756062E-2,8.8100827E-1,-9.388574E-3,-1.1762599E-2,-4.8084804E-3,-1.1219408E-2,6.6430103E-3,-2.965507E-3,1.3492834E-2,3.859983E-3],"categories":[],"categories_nodes":[],"categories_segments":[],"categories_sizes":[],"default_left":[0,0,0,0,0,0,0,0,0,0,0,0,0,0,0],"id":30,"left_children":[1,3,5,7,9,11,13,-1,-1,-1,-1,-1,-1,-1,-1],"loss_changes":[4.912048E2,1.6386993E1,1.1652974E2,2.6128235E0,8.92543E0,4.7585423E1,7.863837E1,0E0,0E0,0E0,0E0,0E0,0E0,0E0,0E0],"parents":[2147483647,0,0,1,1,2,2,3,3,4,4,5,5,6,6],"right_children":[2,4,6,8,10,12,14,-1,-1,-1,-1,-1,-1,-1,-1],"split_conditions":[1E0,1E0,1E0,1E0,7.1E1,3E0,1.6E1,-9.388574E-3,-1.1762599E-2,-4.8084804E-3,-1.1219408E-2,6.6430103E-3,-2.965507E-3,1.3492834E-2,3.859983E-3],"split_indices":[2,4,4,9,0,0,0,0,0,0,0,0,0,0,0],"split_type":[0,0,0,0,0,0,0,0,0,0,0,0,0,0,0],"sum_hessian":[9.8624426E2,3.9700592E2,5.8923834E2,2.697303E2,1.2727563E2,2.4874184E2,3.4049652E2,1.1768833E2,1.5204196E2,9.894077E1,2.8334852E1,7.151223E1,1.7722961E2,1.7408644E2,1.6641008E2],"tree_param":{"num_deleted":"0","num_feature":"12","num_nodes":"15","size_leaf_vector":"1"}},{"base_weights":[-4.519239E-2,-9.066304E-1,5.309754E-1,-1.0374324E0,-5.403804E-1,5.9023656E-2,8.3444756E-1,-8.678557E-3,-1.1797686E-2,-1.8133337E-3,-8.775747E-3,4.224542E-3,-3.2168324E-3,1.2460373E-2,3.9874176E-3],"categories":[],"categories_nodes":[],"categories_segments":[],"categories_sizes":[],"default_left":[0,0,0,0,0,0,0,0,0,0,0,0,0,0,0],"id":31,"left_children":[1,3,5,7,9,11,13,-1,-1,-1,-1,-1,-1,-1,-1],"loss_changes":[4.8105096E2,1.8047333E1,8.31378E1,5.8580627E0,1.2468693E1,3.1735558E1,6.2884613E1,0E0,0E0,0E0,0E0,0E0,0E0,0E0,0E0],"parents":[2147483647,0,0,1,1,2,2,3,3,4,4,5,5,6,6],"right_children":[2,4,6,8,10,12,14,-1,-1,-1,-1,-1,-1,-1,-1],"split_conditions":[1E0,9.355E1,6.9E1,1E0,6.58685E3,2.3365E2,1.2702E3,-8.678557E-3,-1.1797686E-2,-1.8133337E-3,-8.775747E-3,4.224542E-3,-3.2168324E-3,1.2460373E-2,3.9874176E-3],"split_indices":[2,1,1,9,3,3,3,0,0,0,0,0,0,0,0],"split_type":[0,0,0,0,0,0,0,0,0,0,0,0,0,0,0],"sum_hessian":[9.6724054E2,3.8742358E2,5.7981696E2,2.841205E2,1.0330305E2,2.2738637E2,3.524306E2,1.3289232E2,1.5122821E2,5.0775112E1,5.252794E1,1.1627666E2,1.1110972E2,1.8027444E2,1.7215617E2],"tree_param":{"num_deleted":"0","num_feature":"12","num_nodes":"15","size_leaf_vector":"1"}},{"base_weights":[-4.507819E-2,-9.031912E-1,5.193667E-1,-1.0739031E0,-4.323896E-1,-1.3008968E-3,8.888026E-1,-8.981248E-3,-1.216106E-2,-1.0804946E-3,-8.13963E-3,-2.174695E-3,4.718115E-3,5.438401E-3,1.0953439E-2],"categories":[],"categories_nodes":[],"categories_segments":[],"categories_sizes":[],"default_left":[0,0,0,0,0,0,0,0,0,0,0,0,0,0,0],"id":32,"left_children":[1,3,5,7,9,11,13,-1,-1,-1,-1,-1,-1,-1,-1],"loss_changes":[4.700222E2,3.0480194E1,1.12607864E2,5.953949E0,1.2799223E1,2.5054367E1,2.3802917E1,0E0,0E0,0E0,0E0,0E0,0E0,0E0,0E0],"parents":[2147483647,0,0,1,1,2,2,3,3,4,4,5,5,6,6],"right_children":[2,4,6,8,10,12,14,-1,-1,-1,-1,-1,-1,-1,-1],"split_conditions":[1E0,9.355E1,1E0,1E0,1E0,1E0,1E0,-8.981248E-3,-1.216106E-2,-1.0804946E-3,-8.13963E-3,-2.174695E-3,4.718115E-3,5.438401E-3,1.0953439E-2],"split_indices":[2,1,4,9,9,6,6,0,0,0,0,0,0,0,0],"split_type":[0,0,0,0,0,0,0,0,0,0,0,0,0,0,0],"sum_hessian":[9.684351E2,3.8401917E2,5.8441595E2,2.8088846E2,1.0313071E2,2.4297438E2,3.4144153E2,1.2888655E2,1.520019E2,5.6439716E1,4.6690994E1,1.6714494E2,7.582944E1,1.2923244E2,2.122091E2],"tree_param":{"num_deleted":"0","num_feature":"12","num_nodes":"15","size_leaf_vector":"1"}},{"base_weights":[-4.7109734E-2,-8.79796E-1,4.9194846E-1,-1.0273339E0,-4.6818933E-1,1.0056954E-1,9.084648E-1,-8.484457E-3,-1.168166E-2,-2.6423729E-3,-1.0279581E-2,-1.8484102E-3,5.0575845E-3,1.6674606E-2,7.4803135E-3],"categories":[],"categories_nodes":[],"categories_segments":[],"categories_sizes":[],"default_left":[0,0,0,0,0,0,0,0,0,0,0,0,0,0,0],"id":33,"left_children":[1,3,5,7,9,11,13,-1,-1,-1,-1,-1,-1,-1,-1],"loss_changes":[4.3705142E2,2.2753906E1,9.626808E1,6.083496E0,1.146393E1,3.546624E1,3.3606674E1,0E0,0E0,0E0,0E0,0E0,0E0,0E0,0E0],"parents":[2147483647,0,0,1,1,2,2,3,3,4,4,5,5,6,6],"right_children":[2,4,6,8,10,12,14,-1,-1,-1,-1,-1,-1,-1,-1],"split_conditions":[1E0,9.355E1,1E0,1E0,7.1E1,7.075E1,2E0,-8.484457E-3,-1.168166E-2,-2.6423729E-3,-1.0279581E-2,-1.8484102E-3,5.0575845E-3,1.6674606E-2,7.4803135E-3],"split_indices":[2,1,6,9,0,1,0,0,0,0,0,0,0,0,0],"split_type":[0,0,0,0,0,0,0,0,0,0,0,0,0,0,0],"sum_hessian":[9.71714E2,3.8160873E2,5.901053E2,2.7981494E2,1.017938E2,3.0487314E2,2.8523215E2,1.2634869E2,1.5346625E2,7.568865E1,2.6105148E1,1.7919441E2,1.25678734E2,4.8131737E1,2.371004E2],"tree_param":{"num_deleted":"0","num_feature":"12","num_nodes":"15","size_leaf_vector":"1"}},{"base_weights":[-6.4472996E-2,-8.885272E-1,4.7583452E-1,-1.005686E0,-3.187242E-1,-8.234015E-3,8.3915454E-1,-1.07086105E-2,-6.068497E-3,1.4797949E-3,-7.254033E-3,5.1612686E-3,-4.857786E-3,1.2234272E-2,3.2233368E-3],"categories":[],"categories_nodes":[],"categories_segments":[],"categories_sizes":[],"default_left":[0,0,0,0,0,0,0,0,0,0,0,0,0,0,0],"id":34,"left_children":[1,3,5,7,9,11,13,-1,-1,-1,-1,-1,-1,-1,-1],"loss_changes":[4.2570325E2,2.4954407E1,1.015829E2,7.501251E0,1.2640555E1,6.2506413E1,6.513135E1,0E0,0E0,0E0,0E0,0E0,0E0,0E0,0E0],"parents":[2147483647,0,0,1,1,2,2,3,3,4,4,5,5,6,6],"right_children":[2,4,6,8,10,12,14,-1,-1,-1,-1,-1,-1,-1,-1],"split_conditions":[1E0,1.015E2,1E0,1E0,1E0,7E0,2E1,-1.07086105E-2,-6.068497E-3,1.4797949E-3,-7.254033E-3,5.1612686E-3,-4.857786E-3,1.2234272E-2,3.2233368E-3],"split_indices":[2,1,4,6,9,0,0,0,0,0,0,0,0,0,0],"split_type":[0,0,0,0,0,0,0,0,0,0,0,0,0,0,0],"sum_hessian":[9.541655E2,3.776085E2,5.76557E2,3.1257425E2,6.503424E1,2.4761934E2,3.2893768E2,2.6722174E2,4.5352505E1,3.0578537E1,3.4455708E1,1.1798587E2,1.2963347E2,1.8787755E2,1.4106012E2],"tree_param":{"num_deleted":"0","num_feature":"12","num_nodes":"15","size_leaf_vector":"1"}},{"base_weights":[-7.300907E-2,5.6391686E-1,-5.1444095E-1,-4.9598783E-1,8.798103E-1,-7.7520734E-1,1.0901788E-1,2.4229756E-3,-8.338986E-3,4.578969E-3,1.2194437E-2,-5.300333E-3,-1.1124888E-2,2.4265999E-3,-8.481619E-3],"categories":[],"categories_nodes":[],"categories_segments":[],"categories_sizes":[],"default_left":[0,0,0,0,0,0,0,0,0,0,0,0,0,0,0],"id":35,"left_children":[1,3,5,7,9,11,13,-1,-1,-1,-1,-1,-1,-1,-1],"loss_changes":[2.7366684E2,1.3386139E2,9.353673E1,2.3188227E1,4.3485504E1,3.293576E1,2.200278E1,0E0,0E0,0E0,0E0,0E0,0E0,0E0,0E0],"parents":[2147483647,0,0,1,1,2,2,3,3,4,4,5,5,6,6],"right_children":[2,4,6,8,10,12,14,-1,-1,-1,-1,-1,-1,-1,-1],"split_conditions":[1.8E1,2.56E1,1E0,3.5E1,7.075E1,1E0,1E0,2.4229756E-3,-8.338986E-3,4.578969E-3,1.2194437E-2,-5.300333E-3,-1.1124888E-2,2.4265999E-3,-8.481619E-3],"split_indices":[0,1,6,3,1,9,9,0,0,0,0,0,0,0,0],"split_type":[0,0,0,0,0,0,0,0,0,0,0,0,0,0,0],"sum_hessian":[9.713193E2,3.9750143E2,5.738178E2,9.113835E1,3.063631E2,4.0442188E2,1.6939594E2,2.870503E1,6.2433323E1,1.3767857E2,1.6868451E2,2.3567691E2,1.6874496E2,1.4929741E2,2.0098524E1],"tree_param":{"num_deleted":"0","num_feature":"12","num_nodes":"15","size_leaf_vector":"1"}},{"base_weights":[-5.394429E-2,-8.857909E-1,4.7924623E-1,-1.0150697E0,-5.3269017E-1,3.2346275E-2,7.781024E-1,-1.1546001E-2,-8.988148E-3,-3.4406695E-3,-1.0283006E-2,4.8085293E-3,-3.834054E-3,1.4081202E-2,4.257091E-3],"categories":[],"categories_nodes":[],"categories_segments":[],"categories_sizes":[],"default_left":[0,0,0,0,0,0,0,0,0,0,0,0,0,0,0],"id":36,"left_children":[1,3,5,7,9,11,13,-1,-1,-1,-1,-1,-1,-1,-1],"loss_changes":[4.2815268E2,1.667044E1,7.855136E1,3.4212036E0,9.289152E0,4.4342045E1,7.766434E1,0E0,0E0,0E0,0E0,0E0,0E0,0E0,0E0],"parents":[2147483647,0,0,1,1,2,2,3,3,4,4,5,5,6,6],"right_children":[2,4,6,8,10,12,14,-1,-1,-1,-1,-1,-1,-1,-1],"split_conditions":[1E0,9.355E1,6.92E1,4.065E1,7.1E1,6E0,9E0,-1.1546001E-2,-8.988148E-3,-3.4406695E-3,-1.0283006E-2,4.8085293E-3,-3.834054E-3,1.4081202E-2,4.257091E-3],"split_indices":[2,1,1,1,0,0,0,0,0,0,0,0,0,0,0],"split_type":[0,0,0,0,0,0,0,0,0,0,0,0,0,0,0],"sum_hessian":[9.633667E2,3.760377E2,5.8732904E2,2.738864E2,1.0215127E2,2.3581183E2,3.5151718E2,1.2042244E2,1.5346397E2,7.521833E1,2.6932936E1,1.13362015E2,1.22449814E2,1.25015465E2,2.2650172E2],"tree_param":{"num_deleted":"0","num_feature":"12","num_nodes":"15","size_leaf_vector":"1"}},{"base_weights":[-5.113155E-2,-8.614712E-1,4.6165314E-1,-6.041106E-1,-1.0913596E0,4.4471705E-3,8.049565E-1,-7.676795E-3,-9.8511184E-5,-1.1728757E-2,-8.328705E-3,4.70946E-3,-3.6911836E-3,1.3666452E-2,4.20817E-3],"categories":[],"categories_nodes":[],"categories_segments":[],"categories_sizes":[],"default_left":[0,0,0,0,0,0,0,0,0,0,0,0,0,0,0],"id":37,"left_children":[1,3,5,7,9,11,13,-1,-1,-1,-1,-1,-1,-1,-1],"loss_changes":[4.039266E2,2.162854E1,9.345173E1,1.7486519E1,3.1896667E0,4.4847343E1,7.279805E1,0E0,0E0,0E0,0E0,0E0,0E0,0E0,0E0],"parents":[2147483647,0,0,1,1,2,2,3,3,4,4,5,5,6,6],"right_children":[2,4,6,8,10,12,14,-1,-1,-1,-1,-1,-1,-1,-1],"split_conditions":[1E0,1E0,1E0,9.95E1,9.23E1,6E0,1.1E1,-7.676795E-3,-9.8511184E-5,-1.1728757E-2,-8.328705E-3,4.70946E-3,-3.6911836E-3,1.3666452E-2,4.20817E-3],"split_indices":[2,9,4,1,1,0,0,0,0,0,0,0,0,0,0],"split_type":[0,0,0,0,0,0,0,0,0,0,0,0,0,0,0],"sum_hessian":[9.701192E2,3.757119E2,5.944072E2,1.789759E2,1.9673601E2,2.5534962E2,3.3905762E2,1.401171E2,3.8858814E1,1.4687927E2,4.9856735E1,1.13434685E2,1.4191493E2,1.3666638E2,2.0239125E2],"tree_param":{"num_deleted":"0","num_feature":"12","num_nodes":"15","size_leaf_vector":"1"}},{"base_weights":[-4.343882E-2,-4.6197745E-1,6.7500675E-1,1.9430421E-1,-7.754257E-1,1.0772568E0,1.3139248E-1,-1.7434232E-3,1.0700575E-2,-1.028324E-2,-3.7577492E-3,5.2850847E-3,1.2589353E-2,-6.8438402E-3,4.500881E-3],"categories":[],"categories_nodes":[],"categories_segments":[],"categories_sizes":[],"default_left":[0,0,0,0,0,0,0,0,0,0,0,0,0,0,0],"id":38,"left_children":[1,3,5,7,9,11,13,-1,-1,-1,-1,-1,-1,-1,-1],"loss_changes":[2.9061713E2,1.25766235E2,7.766031E1,6.416744E1,4.1402756E1,1.9707245E1,3.9942604E1,0E0,0E0,0E0,0E0,0E0,0E0,0E0,0E0],"parents":[2147483647,0,0,1,1,2,2,3,3,4,4,5,5,6,6],"right_children":[2,4,6,8,10,12,14,-1,-1,-1,-1,-1,-1,-1,-1],"split_conditions":[1E0,1.6E1,2.2E1,1E0,1E0,1E0,1E0,-1.7434232E-3,1.0700575E-2,-1.028324E-2,-3.7577492E-3,5.2850847E-3,1.2589353E-2,-6.8438402E-3,4.500881E-3],"split_indices":[6,0,0,4,4,5,4,0,0,0,0,0,0,0,0],"split_type":[0,0,0,0,0,0,0,0,0,0,0,0,0,0,0],"sum_hessian":[9.6444055E2,6.09643E2,3.5479752E2,1.971793E2,4.124637E2,2.0334772E2,1.514498E2,1.3932968E2,5.784962E1,2.5164816E2,1.6081555E2,5.1550842E1,1.5179688E2,4.2222897E1,1.09226906E2],"tree_param":{"num_deleted":"0","num_feature":"12","num_nodes":"15","size_leaf_vector":"1"}},{"base_weights":[-4.8024964E-2,5.5349183E-1,-5.75697E-1,3.54212E-2,1.1151451E0,-1.0106424E0,-1.0367825E-1,5.0774496E-3,-4.263533E-3,1.8578716E-2,9.274712E-3,-1.1532333E-2,-9.218261E-3,2.8143323E-3,-6.1734514E-3],"categories":[],"categories_nodes":[],"categories_segments":[],"categories_sizes":[],"default_left":[0,0,0,0,0,0,0,0,0,0,0,0,0,0,0],"id":39,"left_children":[1,3,5,7,9,11,13,-1,-1,-1,-1,-1,-1,-1,-1],"loss_changes":[2.9987924E2,1.2843869E2,1.0321207E2,5.053709E1,2.7803467E1,2.2523804E0,4.8135E1,0E0,0E0,0E0,0E0,0E0,0E0,0E0,0E0],"parents":[2147483647,0,0,1,1,2,2,3,3,4,4,5,5,6,6],"right_children":[2,4,6,8,10,12,14,-1,-1,-1,-1,-1,-1,-1,-1],"split_conditions":[2.3E1,1E0,1E0,6E0,1.183E2,2.64E1,5.5E1,5.0774496E-3,-4.263533E-3,1.8578716E-2,9.274712E-3,-1.1532333E-2,-9.218261E-3,2.8143323E-3,-6.1734514E-3],"split_indices":[0,4,4,0,3,1,0,0,0,0,0,0,0,0,0],"split_type":[0,0,0,0,0,0,0,0,0,0,0,0,0,0,0],"sum_hessian":[9.427845E2,4.4054208E2,5.022424E2,2.297152E2,2.1082689E2,2.6079224E2,2.4145016E2,1.1351123E2,1.16203964E2,4.073139E1,1.700955E2,9.549483E1,1.6529741E2,1.382512E2,1.0319897E2],"tree_param":{"num_deleted":"0","num_feature":"12","num_nodes":"15","size_leaf_vector":"1"}},{"base_weights":[-8.355559E-2,-8.8869375E-1,4.3548742E-1,-1.0383191E0,-4.7090188E-1,4.725303E-2,8.4421265E-1,-9.043321E-3,-1.1505265E-2,-1.1033126E-3,-8.777769E-3,5.4833824E-3,-1.9253833E-3,1.4455643E-2,6.558743E-3],"categories":[],"categories_nodes":[],"categories_segments":[],"categories_sizes":[],"default_left":[0,0,0,0,0,0,0,0,0,0,0,0,0,0,0],"id":40,"left_children":[1,3,5,7,9,11,13,-1,-1,-1,-1,-1,-1,-1,-1],"loss_changes":[3.998311E2,2.2952515E1,9.228779E1,3.0981445E0,1.4678467E1,3.6087612E1,3.1147125E1,0E0,0E0,0E0,0E0,0E0,0E0,0E0,0E0],"parents":[2147483647,0,0,1,1,2,2,3,3,4,4,5,5,6,6],"right_children":[2,4,6,8,10,12,14,-1,-1,-1,-1,-1,-1,-1,-1],"split_conditions":[1E0,9.355E1,1E0,1E0,1E0,5E0,3E0,-9.043321E-3,-1.1505265E-2,-1.1033126E-3,-8.777769E-3,5.4833824E-3,-1.9253833E-3,1.4455643E-2,6.558743E-3],"split_indices":[2,1,6,9,9,0,0,0,0,0,0,0,0,0,0],"split_type":[0,0,0,0,0,0,0,0,0,0,0,0,0,0,0],"sum_hessian":[9.5483344E2,3.739896E2,5.808439E2,2.7427664E2,9.971294E1,2.984612E2,2.8238266E2,1.2913544E2,1.451412E2,5.353853E1,4.6174404E1,9.618319E1,2.0227802E2,6.575524E1,2.1662743E2],"tree_param":{"num_deleted":"0","num_feature":"12","num_nodes":"15","size_leaf_vector":"1"}},{"base_weights":[-6.7335E-2,5.293753E-1,-4.85023E-1,1.4002535E-2,1.1295804E0,-9.3135804E-1,-2.7122075E-2,6.0575404E-3,-3.3070552E-3,1.7507406E-2,9.441014E-3,-1.0140496E-2,-5.127114E-3,4.658792E-3,-4.1306284E-3],"categories":[],"categories_nodes":[],"categories_segments":[],"categories_sizes":[],"default_left":[0,0,0,0,0,0,0,0,0,0,0,0,0,0,0],"id":41,"left_children":[1,3,5,7,9,11,13,-1,-1,-1,-1,-1,-1,-1,-1],"loss_changes":[2.3874176E2,1.2200584E2,1.1511723E2,4.3698746E1,1.9341644E1,9.355515E0,5.3300026E1,0E0,0E0,0E0,0E0,0E0,0E0,0E0,0E0],"parents":[2147483647,0,0,1,1,2,2,3,3,4,4,5,5,6,6],"right_children":[2,4,6,8,10,12,14,-1,-1,-1,-1,-1,-1,-1,-1],"split_conditions":[1.8E1,1E0,1E0,3E0,1.183E2,1E0,4.4E1,6.0575404E-3,-3.3070552E-3,1.7507406E-2,9.441014E-3,-1.0140496E-2,-5.127114E-3,4.658792E-3,-4.1306284E-3],"split_indices":[0,4,4,0,3,6,0,0,0,0,0,0,0,0,0],"split_type":[0,0,0,0,0,0,0,0,0,0,0,0,0,0,0],"sum_hessian":[9.5585376E2,3.9347162E2,5.6238214E2,2.1224684E2,1.8122478E2,2.8426413E2,2.78118E2,7.784869E1,1.3439816E2,3.973044E1,1.4149434E2,2.3618945E2,4.8074673E1,1.2202982E2,1.560882E2],"tree_param":{"num_deleted":"0","num_feature":"12","num_nodes":"15","size_leaf_vector":"1"}},{"base_weights":[-6.664904E-2,5.6298655E-1,-4.931108E-1,-3.08274E-1,8.61512E-1,-2.2932969E-1,-1.0657248E0,3.5871987E-3,-6.3460222E-3,1.18475985E-2,4.578436E-3,-7.846545E-3,8.064432E-4,-1.1412919E-2,-8.314018E-3],"categories":[],"categories_nodes":[],"categories_segments":[],"categories_sizes":[],"default_left":[0,0,0,0,0,0,0,0,0,0,0,0,0,0,0],"id":42,"left_children":[1,3,5,7,9,11,13,-1,-1,-1,-1,-1,-1,-1,-1],"loss_changes":[2.5450719E2,9.982727E1,8.509659E1,2.165044E1,3.6693817E1,6.686737E1,2.2014923E0,0E0,0E0,0E0,0E0,0E0,0E0,0E0,0E0],"parents":[2147483647,0,0,1,1,2,2,3,3,4,4,5,5,6,6],"right_children":[2,4,6,8,10,12,14,-1,-1,-1,-1,-1,-1,-1,-1],"split_conditions":[1.7E1,3.505E1,1E0,2E0,6E0,6.995E1,9.355E1,3.5871987E-3,-6.3460222E-3,1.18475985E-2,4.578436E-3,-7.846545E-3,8.064432E-4,-1.1412919E-2,-8.314018E-3],"split_indices":[0,1,9,0,0,1,1,0,0,0,0,0,0,0,0],"split_type":[0,0,0,0,0,0,0,0,0,0,0,0,0,0,0],"sum_hessian":[9.457966E2,3.8179202E2,5.640045E2,9.74237E1,2.8436832E2,3.870884E2,1.7691614E2,3.1973227E1,6.545047E1,1.5683983E2,1.27528496E2,1.381172E2,2.4897119E2,1.308482E2,4.606793E1],"tree_param":{"num_deleted":"0","num_feature":"12","num_nodes":"15","size_leaf_vector":"1"}},{"base_weights":[-6.0732428E-2,-8.669674E-1,4.3767837E-1,-1.0223827E0,-5.3578657E-1,-1.6945435E-2,7.673868E-1,-1.1543148E-2,-9.060545E-3,-3.8607009E-3,-1.0378467E-2,4.4192118E-3,-3.978382E-3,1.1319208E-2,3.2688805E-3],"categories":[],"categories_nodes":[],"categories_segments":[],"categories_sizes":[],"default_left":[0,0,0,0,0,0,0,0,0,0,0,0,0,0,0],"id":43,"left_children":[1,3,5,7,9,11,13,-1,-1,-1,-1,-1,-1,-1,-1],"loss_changes":[3.8124878E2,1.8106659E1,8.790931E1,2.7230225E0,8.458359E0,4.342997E1,5.421216E1,0E0,0E0,0E0,0E0,0E0,0E0,0E0,0E0],"parents":[2147483647,0,0,1,1,2,2,3,3,4,4,5,5,6,6],"right_children":[2,4,6,8,10,12,14,-1,-1,-1,-1,-1,-1,-1,-1],"split_conditions":[1E0,1E0,1E0,1E0,7.1E1,6E0,1.8E1,-1.1543148E-2,-9.060545E-3,-3.8607009E-3,-1.0378467E-2,4.4192118E-3,-3.978382E-3,1.1319208E-2,3.2688805E-3],"split_indices":[2,4,4,8,0,0,0,0,0,0,0,0,0,0,0],"split_type":[0,0,0,0,0,0,0,0,0,0,0,0,0,0,0],"sum_hessian":[9.4682227E2,3.614298E2,5.8539246E2,2.4457121E2,1.1685861E2,2.4647919E2,3.3891324E2,1.1041853E2,1.3415268E2,9.1378204E1,2.5480404E1,1.117238E2,1.3475539E2,1.8458804E2,1.543252E2],"tree_param":{"num_deleted":"0","num_feature":"12","num_nodes":"15","size_leaf_vector":"1"}},{"base_weights":[-4.8821364E-2,-8.4091634E-1,4.3157017E-1,-5.8490205E-1,-1.0764228E0,-4.2961318E-2,7.7034724E-1,-7.4304813E-3,1.8082305E-3,-1.13717215E-2,-8.745846E-3,5.455529E-3,-3.8456449E-3,1.192074E-2,3.800323E-3],"categories":[],"categories_nodes":[],"categories_segments":[],"categories_sizes":[],"default_left":[0,0,0,0,0,0,0,0,0,0,0,0,0,0,0],"id":44,"left_children":[1,3,5,7,9,11,13,-1,-1,-1,-1,-1,-1,-1,-1],"loss_changes":[3.6634128E2,2.1283142E1,9.638605E1,2.1486938E1,1.3119812E0,5.0590946E1,5.7118454E1,0E0,0E0,0E0,0E0,0E0,0E0,0E0,0E0],"parents":[2147483647,0,0,1,1,2,2,3,3,4,4,5,5,6,6],"right_children":[2,4,6,8,10,12,14,-1,-1,-1,-1,-1,-1,-1,-1],"split_conditions":[1E0,1E0,1E0,1.015E2,9.23E1,4E0,1.4E1,-7.4304813E-3,1.8082305E-3,-1.13717215E-2,-8.745846E-3,5.455529E-3,-3.8456449E-3,1.192074E-2,3.800323E-3],"split_indices":[2,9,4,1,1,0,0,0,0,0,0,0,0,0,0],"split_type":[0,0,0,0,0,0,0,0,0,0,0,0,0,0,0],"sum_hessian":[9.607956E2,3.6243805E2,5.9835754E2,1.7532712E2,1.8711095E2,2.4960469E2,3.4875284E2,1.4533958E2,2.9987535E1,1.4026096E2,4.684999E1,9.145276E1,1.5815192E2,1.6664377E2,1.8210907E2],"tree_param":{"num_deleted":"0","num_feature":"12","num_nodes":"15","size_leaf_vector":"1"}},{"base_weights":[-5.0059978E-2,-8.514593E-1,4.5051384E-1,-1.0245296E0,-4.8244965E-1,-4.7662184E-2,8.08902E-1,-1.1021569E-2,-9.008146E-3,-2.3895607E-3,-8.099947E-3,3.1182456E-3,-3.9284034E-3,9.936785E-3,2.0264916E-3],"categories":[],"categories_nodes":[],"categories_segments":[],"categories_sizes":[],"default_left":[0,0,0,0,0,0,0,0,0,0,0,0,0,0,0],"id":45,"left_children":[1,3,5,7,9,11,13,-1,-1,-1,-1,-1,-1,-1,-1],"loss_changes":[3.8326608E2,2.2963348E1,1.0504477E2,1.3998413E0,9.309982E0,3.0774717E1,3.8122787E1,0E0,0E0,0E0,0E0,0E0,0E0,0E0,0E0],"parents":[2147483647,0,0,1,1,2,2,3,3,4,4,5,5,6,6],"right_children":[2,4,6,8,10,12,14,-1,-1,-1,-1,-1,-1,-1,-1],"split_conditions":[1E0,1E0,1E0,1E0,6.58685E3,2.3365E2,3.09005E3,-1.1021569E-2,-9.008146E-3,-2.3895607E-3,-8.099947E-3,3.1182456E-3,-3.9284034E-3,9.936785E-3,2.0264916E-3],"split_indices":[2,4,4,5,3,3,3,0,0,0,0,0,0,0,0],"split_type":[0,0,0,0,0,0,0,0,0,0,0,0,0,0,0],"sum_hessian":[9.5343945E2,3.6630243E2,5.87137E2,2.4814354E2,1.1815889E2,2.4602208E2,3.4111496E2,1.4761237E2,1.0053117E2,6.876744E1,4.939145E1,1.2056056E2,1.2546151E2,2.6094415E2,8.01708E1],"tree_param":{"num_deleted":"0","num_feature":"12","num_nodes":"15","size_leaf_vector":"1"}},{"base_weights":[-5.1096007E-2,5.3412426E-1,-4.7742504E-1,-4.910439E-3,1.1240065E0,-9.221655E-1,-2.6231015E-2,-6.0444647E-3,3.1217597E-3,1.7764552E-2,9.4768675E-3,-7.585496E-3,-1.1234238E-2,1.4275659E-3,-7.892004E-3],"categories":[],"categories_nodes":[],"categories_segments":[],"categories_sizes":[],"default_left":[0,0,0,0,0,0,0,0,0,0,0,0,0,0,0],"id":46,"left_children":[1,3,5,7,9,11,13,-1,-1,-1,-1,-1,-1,-1,-1],"loss_changes":[2.3901299E2,1.2839857E2,1.1117716E2,4.048826E1,2.0496979E1,8.33667E0,3.5713013E1,0E0,0E0,0E0,0E0,0E0,0E0,0E0,0E0],"parents":[2147483647,0,0,1,1,2,2,3,3,4,4,5,5,6,6],"right_children":[2,4,6,8,10,12,14,-1,-1,-1,-1,-1,-1,-1,-1],"split_conditions":[1.8E1,1E0,1E0,2.305E1,2E0,1E0,1E0,-6.0444647E-3,3.1217597E-3,1.7764552E-2,9.4768675E-3,-7.585496E-3,-1.1234238E-2,1.4275659E-3,-7.892004E-3],"split_indices":[0,4,4,1,0,9,9,0,0,0,0,0,0,0,0],"split_type":[0,0,0,0,0,0,0,0,0,0,0,0,0,0,0],"sum_hessian":[9.559598E2,4.0279364E2,5.5316614E2,2.109861E2,1.9180753E2,2.7804965E2,2.7511646E2,7.2672745E1,1.3831335E2,3.887614E1,1.5293138E2,1.5599792E2,1.22051735E2,2.2589632E2,4.9220142E1],"tree_param":{"num_deleted":"0","num_feature":"12","num_nodes":"15","size_leaf_vector":"1"}},{"base_weights":[-3.5266533E-2,2.0525478E-1,-1.0415545E0,-1.5604049E-1,6.72527E-1,-1.1196162E0,-8.0603623E-1,-4.0891767E-3,2.240175E-3,1.2662647E-2,4.8399703E-3,-1.1510743E-2,-5.0978577E-3,-6.4101378E-3,-1.1203226E-2],"categories":[],"categories_nodes":[],"categories_segments":[],"categories_sizes":[],"default_left":[0,0,0,0,0,0,0,0,0,0,0,0,0,0,0],"id":47,"left_children":[1,3,5,7,9,11,13,-1,-1,-1,-1,-1,-1,-1,-1],"loss_changes":[2.3345084E2,1.3154944E2,2.5183105E0,4.236954E1,3.7411346E1,2.044754E0,1.8692894E0,0E0,0E0,0E0,0E0,0E0,0E0,0E0,0E0],"parents":[2147483647,0,0,1,1,2,2,3,3,4,4,5,5,6,6],"right_children":[2,4,6,8,10,12,14,-1,-1,-1,-1,-1,-1,-1,-1],"split_conditions":[1E0,1E0,9.23E1,1E0,2.1075E2,1E0,7.72635E3,-4.0891767E-3,2.240175E-3,1.2662647E-2,4.8399703E-3,-1.1510743E-2,-5.0978577E-3,-6.4101378E-3,-1.1203226E-2],"split_indices":[9,6,1,4,3,6,3,0,0,0,0,0,0,0,0],"split_type":[0,0,0,0,0,0,0,0,0,0,0,0,0,0,0],"sum_hessian":[9.6265533E2,7.7759247E2,1.8506287E2,4.389004E2,3.3869208E2,1.3617444E2,4.888843E1,2.6350052E2,1.7539987E2,8.024857E1,2.584435E2,1.2865047E2,7.5239687E0,3.4049587E1,1.4838842E1],"tree_param":{"num_deleted":"0","num_feature":"12","num_nodes":"15","size_leaf_vector":"1"}},{"base_weights":[-4.5772005E-2,-8.3351237E-1,4.464345E-1,-9.464258E-1,-2.964171E-1,1.09211266E-1,7.840128E-1,-7.7829156E-3,-1.1066379E-2,2.2664962E-3,-7.520581E-3,7.453797E-3,-1.9708775E-4,1.48059875E-2,6.3464367E-3],"categories":[],"categories_nodes":[],"categories_segments":[],"categories_sizes":[],"default_left":[0,0,0,0,0,0,0,0,0,0,0,0,0,0,0],"id":48,"left_children":[1,3,5,7,9,11,13,-1,-1,-1,-1,-1,-1,-1,-1],"loss_changes":[3.729745E2,2.2151917E1,6.731691E1,7.359558E0,1.5831403E1,2.440265E1,2.9830093E1,0E0,0E0,0E0,0E0,0E0,0E0,0E0,0E0],"parents":[2147483647,0,0,1,1,2,2,3,3,4,4,5,5,6,6],"right_children":[2,4,6,8,10,12,14,-1,-1,-1,-1,-1,-1,-1,-1],"split_conditions":[1E0,1.015E2,1E0,1E0,1E0,2E0,2E0,-7.7829156E-3,-1.1066379E-2,2.2664962E-3,-7.520581E-3,7.453797E-3,-1.9708775E-4,1.48059875E-2,6.3464367E-3],"split_indices":[2,1,6,9,9,0,0,0,0,0,0,0,0,0,0],"split_type":[0,0,0,0,0,0,0,0,0,0,0,0,0,0,0],"sum_hessian":[9.599819E2,3.6889658E2,5.910853E2,3.0418558E2,6.4711006E1,2.9636026E2,2.9472504E2,1.512815E2,1.5290407E2,3.0360426E1,3.4350582E1,4.913199E1,2.4722829E2,5.046555E1,2.4425948E2],"tree_param":{"num_deleted":"0","num_feature":"12","num_nodes":"15","size_leaf_vector":"1"}},{"base_weights":[-4.6202604E-2,-5.1443434E-1,4.4456518E-1,1.8986115E-1,-7.8582555E-1,8.98823E-1,-2.728871E-1,-5.1945127E-3,7.972655E-3,-6.0168034E-3,-1.1117489E-2,1.1052166E-2,4.5106616E-3,-1.0833141E-3,-7.358286E-3],"categories":[],"categories_nodes":[],"categories_segments":[],"categories_sizes":[],"default_left":[0,0,0,0,0,0,0,0,0,0,0,0,0,0,0],"id":49,"left_children":[1,3,5,7,9,11,13,-1,-1,-1,-1,-1,-1,-1,-1],"loss_changes":[2.2022371E2,9.388278E1,1.5276007E2,5.952973E1,2.058815E1,2.600357E1,1.3799672E1,0E0,0E0,0E0,0E0,0E0,0E0,0E0,0E0],"parents":[2147483647,0,0,1,1,2,2,3,3,4,4,5,5,6,6],"right_children":[2,4,6,8,10,12,14,-1,-1,-1,-1,-1,-1,-1,-1],"split_conditions":[1E0,2.4045E2,3.32705E3,2.425E1,1E0,1.5386E3,1E0,-5.1945127E-3,7.972655E-3,-6.0168034E-3,-1.1117489E-2,1.1052166E-2,4.5106616E-3,-1.0833141E-3,-7.358286E-3],"split_indices":[4,3,3,1,9,3,9,0,0,0,0,0,0,0,0],"split_type":[0,0,0,0,0,0,0,0,0,0,0,0,0,0,0],"sum_hessian":[9.563615E2,4.893931E2,4.6696838E2,1.3621027E2,3.5318283E2,2.857756E2,1.811928E2,6.2900894E1,7.330937E1,2.2749516E2,1.2568768E2,1.9460435E2,9.117125E1,1.3458694E2,4.660584E1],"tree_param":{"num_deleted":"0","num_feature":"12","num_nodes":"15","size_leaf_vector":"1"}},{"base_weights":[-5.098444E-2,-8.437898E-1,4.3239647E-1,-9.6040136E-1,-3.371995E-1,1.1144843E0,2.9425395E-1,-1.1431048E-2,-8.345202E-3,5.136263E-4,-7.2976234E-3,6.9042165E-3,1.54303E-2,-1.5501338E-3,5.9672687E-3],"categories":[],"categories_nodes":[],"categories_segments":[],"categories_sizes":[],"default_left":[0,0,0,0,0,0,0,0,0,0,0,0,0,0,0],"id":50,"left_children":[1,3,5,7,9,11,13,-1,-1,-1,-1,-1,-1,-1,-1],"loss_changes":[3.6163727E2,2.0789825E1,5.4916534E1,5.715576E0,1.0473684E1,1.6814308E1,6.653191E1,0E0,0E0,0E0,0E0,0E0,0E0,0E0,0E0],"parents":[2147483647,0,0,1,1,2,2,3,3,4,4,5,5,6,6],"right_children":[2,4,6,8,10,12,14,-1,-1,-1,-1,-1,-1,-1,-1],"split_conditions":[1E0,1.006E2,2E0,4.065E1,1E0,5.035E1,7.055E1,-1.1431048E-2,-8.345202E-3,5.136263E-4,-7.2976234E-3,6.9042165E-3,1.54303E-2,-1.5501338E-3,5.9672687E-3],"split_indices":[2,1,0,1,9,1,1,0,0,0,0,0,0,0,0],"split_type":[0,0,0,0,0,0,0,0,0,0,0,0,0,0,0],"sum_hessian":[9.417113E2,3.5640945E2,5.853019E2,2.889911E2,6.741838E1,9.738573E1,4.8791614E2,1.1459194E2,1.7439912E2,3.4318645E1,3.309973E1,5.0261303E1,4.7124428E1,1.9651585E2,2.9140027E2],"tree_param":{"num_deleted":"0","num_feature":"12","num_nodes":"15","size_leaf_vector":"1"}},{"base_weights":[-4.919265E-2,-8.3283E-1,4.0872344E-1,-9.951002E-1,-4.0652674E-1,-2.6228778E-2,7.2019255E-1,-8.323122E-3,-1.1306886E-2,-1.2520978E-3,-7.4266284E-3,2.5002377E-3,-3.9062854E-3,1.0830241E-2,2.7285547E-3],"categories":[],"categories_nodes":[],"categories_segments":[],"categories_sizes":[],"default_left":[0,0,0,0,0,0,0,0,0,0,0,0,0,0,0],"id":51,"left_children":[1,3,5,7,9,11,13,-1,-1,-1,-1,-1,-1,-1,-1],"loss_changes":[3.4039606E2,2.37966E1,8.114152E1,4.636627E0,9.187569E0,2.5348438E1,5.634494E1,0E0,0E0,0E0,0E0,0E0,0E0,0E0,0E0],"parents":[2147483647,0,0,1,1,2,2,3,3,4,4,5,5,6,6],"right_children":[2,4,6,8,10,12,14,-1,-1,-1,-1,-1,-1,-1,-1],"split_conditions":[1E0,9.355E1,1E0,1E0,1E0,3.515E2,1.5639E3,-8.323122E-3,-1.1306886E-2,-1.2520978E-3,-7.4266284E-3,2.5002377E-3,-3.9062854E-3,1.0830241E-2,2.7285547E-3],"split_indices":[2,1,4,9,9,3,3,0,0,0,0,0,0,0,0],"split_type":[0,0,0,0,0,0,0,0,0,0,0,0,0,0,0],"sum_hessian":[9.466522E2,3.4884714E2,5.9780505E2,2.5170331E2,9.714382E1,2.498362E2,3.4796887E2,1.1762306E2,1.3408025E2,5.3631428E1,4.351239E1,1.4228409E2,1.0755212E2,1.9134744E2,1.5662143E2],"tree_param":{"num_deleted":"0","num_feature":"12","num_nodes":"15","size_leaf_vector":"1"}},{"base_weights":[-4.4358406E-2,-8.3543813E-1,4.2566726E-1,-9.507941E-1,-3.572134E-1,8.1003085E-3,7.166743E-1,-1.0049475E-2,-6.018984E-3,-1.7918495E-4,-6.9676344E-3,2.3452921E-3,-3.8694686E-3,9.372164E-3,4.2468956E-4],"categories":[],"categories_nodes":[],"categories_segments":[],"categories_sizes":[],"default_left":[0,0,0,0,0,0,0,0,0,0,0,0,0,0,0],"id":52,"left_children":[1,3,5,7,9,11,13,-1,-1,-1,-1,-1,-1,-1,-1],"loss_changes":[3.5124136E2,1.9081848E1,7.200674E1,4.742737E0,8.054339E0,2.1952187E1,5.1886658E1,0E0,0E0,0E0,0E0,0E0,0E0,0E0,0E0],"parents":[2147483647,0,0,1,1,2,2,3,3,4,4,5,5,6,6],"right_children":[2,4,6,8,10,12,14,-1,-1,-1,-1,-1,-1,-1,-1],"split_conditions":[1E0,1E2,1E0,1E0,6.9946E3,4.581E2,3.09005E3,-1.0049475E-2,-6.018984E-3,-1.7918495E-4,-6.9676344E-3,2.3452921E-3,-3.8694686E-3,9.372164E-3,4.2468956E-4],"split_indices":[2,1,4,6,3,3,3,0,0,0,0,0,0,0,0],"split_type":[0,0,0,0,0,0,0,0,0,0,0,0,0,0,0],"sum_hessian":[9.426781E2,3.510551E2,5.91623E2,2.8203522E2,6.90199E1,2.4339813E2,3.4822488E2,2.4251341E2,3.9521816E1,3.5049503E1,3.3970394E1,1.5497662E2,8.842152E1,2.6209863E2,8.612623E1],"tree_param":{"num_deleted":"0","num_feature":"12","num_nodes":"15","size_leaf_vector":"1"}},{"base_weights":[-3.817933E-2,-8.1653684E-1,4.1729802E-1,-1.08629E0,-6.926443E-1,8.945936E-2,7.503766E-1,-1.1679452E-3,-1.1016333E-2,-5.932195E-3,-1.0905872E-2,3.127245E-3,-2.5142282E-3,1.4578432E-2,6.1449837E-3],"categories":[],"categories_nodes":[],"categories_segments":[],"categories_sizes":[],"default_left":[0,0,0,0,0,0,0,0,0,0,0,0,0,0,0],"id":53,"left_children":[1,3,5,7,9,11,13,-1,-1,-1,-1,-1,-1,-1,-1],"loss_changes":[3.419073E2,1.1145294E1,6.637307E1,1.5118561E0,9.114471E0,2.3502249E1,2.8104156E1,0E0,0E0,0E0,0E0,0E0,0E0,0E0,0E0],"parents":[2147483647,0,0,1,1,2,2,3,3,4,4,5,5,6,6],"right_children":[2,4,6,8,10,12,14,-1,-1,-1,-1,-1,-1,-1,-1],"split_conditions":[1E0,1E0,1E0,4.025E1,7.1E1,1.7E1,2E0,-1.1679452E-3,-1.1016333E-2,-5.932195E-3,-1.0905872E-2,3.127245E-3,-2.5142282E-3,1.4578432E-2,6.1449837E-3],"split_indices":[2,8,6,3,0,0,0,0,0,0,0,0,0,0,0],"split_type":[0,0,0,0,0,0,0,0,0,0,0,0,0,0,0],"sum_hessian":[9.6245056E2,3.5500162E2,6.07449E2,1.092852E2,2.457164E2,3.067718E2,3.0067715E2,1.8367729E0,1.07448425E2,1.9859004E2,4.7126366E1,1.8541469E2,1.2135712E2,4.687703E1,2.5380013E2],"tree_param":{"num_deleted":"0","num_feature":"12","num_nodes":"15","size_leaf_vector":"1"}},{"base_weights":[-4.620301E-2,-8.324173E-1,4.1397947E-1,-6.3435495E-1,-1.0238819E0,-5.73486E-1,5.300943E-1,-8.492096E-3,-3.2409378E-3,-1.0901469E-2,-8.100301E-3,1.07400025E-4,-8.469281E-3,1.0142072E-2,2.514008E-3],"categories":[],"categories_nodes":[],"categories_segments":[],"categories_sizes":[],"default_left":[0,0,0,0,0,0,0,0,0,0,0,0,0,0,0],"id":54,"left_children":[1,3,5,7,9,11,13,-1,-1,-1,-1,-1,-1,-1,-1],"loss_changes":[3.3994864E2,1.2505203E1,6.826906E1,1.126619E1,1.5933685E0,1.00492E1,7.1374695E1,0E0,0E0,0E0,0E0,0E0,0E0,0E0,0E0],"parents":[2147483647,0,0,1,1,2,2,3,3,4,4,5,5,6,6],"right_children":[2,4,6,8,10,12,14,-1,-1,-1,-1,-1,-1,-1,-1],"split_conditions":[1E0,1E0,2.085E1,8.185E1,9.23E1,3.5E1,7E0,-8.492096E-3,-3.2409378E-3,-1.0901469E-2,-8.100301E-3,1.07400025E-4,-8.469281E-3,1.0142072E-2,2.514008E-3],"split_indices":[2,9,1,1,1,3,0,0,0,0,0,0,0,0,0],"split_type":[0,0,0,0,0,0,0,0,0,0,0,0,0,0,0],"sum_hessian":[9.37646E2,3.4588986E2,5.917561E2,1.7213568E2,1.737542E2,6.184806E1,5.299081E2,1.0067886E2,7.145682E1,1.2952222E2,4.423197E1,2.0024725E1,4.1823334E1,1.9263919E2,3.3726886E2],"tree_param":{"num_deleted":"0","num_feature":"12","num_nodes":"15","size_leaf_vector":"1"}},{"base_weights":[-4.362423E-2,-3.9619437E-1,5.216272E-1,-6.4163446E-1,2.8397448E-2,9.551677E-1,2.7387276E-1,-8.2230964E-4,-8.589336E-3,8.828622E-3,-3.2108824E-3,-2.8552061E-3,1.0647684E-2,-4.478752E-3,4.9153366E-3],"categories":[],"categories_nodes":[],"categories_segments":[],"categories_sizes":[],"default_left":[0,0,0,0,0,0,0,0,0,0,0,0,0,0,0],"id":55,"left_children":[1,3,5,7,9,11,13,-1,-1,-1,-1,-1,-1,-1,-1],"loss_changes":[1.8982672E2,6.114319E1,3.904342E1,4.5116028E1,6.4731026E1,1.834439E1,3.7021553E1,0E0,0E0,0E0,0E0,0E0,0E0,0E0,0E0],"parents":[2147483647,0,0,1,1,2,2,3,3,4,4,5,5,6,6],"right_children":[2,4,6,8,10,12,14,-1,-1,-1,-1,-1,-1,-1,-1],"split_conditions":[1E0,1E0,5.2845E2,2.658E2,1.4637E3,2.48E1,1E0,-8.2230964E-4,-8.589336E-3,8.828622E-3,-3.2108824E-3,-2.8552061E-3,1.0647684E-2,-4.478752E-3,4.9153366E-3],"split_indices":[6,4,3,3,3,1,4,0,0,0,0,0,0,0,0],"split_type":[0,0,0,0,0,0,0,0,0,0,0,0,0,0,0],"sum_hessian":[9.5047424E2,5.8554517E2,3.649291E2,3.7072955E2,2.1481561E2,1.3166895E2,2.3326016E2,1.0410514E2,2.6662442E2,6.1914185E1,1.5290143E2,1.0557066E1,1.2111187E2,5.380128E1,1.7945888E2],"tree_param":{"num_deleted":"0","num_feature":"12","num_nodes":"15","size_leaf_vector":"1"}},{"base_weights":[-4.3055765E-2,-8.272094E-1,4.063958E-1,-9.6278733E-1,-4.376962E-1,-3.6281094E-1,5.387271E-1,-7.959956E-3,-1.1062806E-2,-1.7824426E-3,-7.0801782E-3,3.7504372E-3,-6.8603996E-3,1.1661921E-2,3.5759555E-3],"categories":[],"categories_nodes":[],"categories_segments":[],"categories_sizes":[],"default_left":[0,0,0,0,0,0,0,0,0,0,0,0,0,0,0],"id":56,"left_children":[1,3,5,7,9,11,13,-1,-1,-1,-1,-1,-1,-1,-1],"loss_changes":[3.3719528E2,1.7986008E1,6.2107315E1,5.287796E0,6.314493E0,2.1692375E1,5.8609528E1,0E0,0E0,0E0,0E0,0E0,0E0,0E0,0E0],"parents":[2147483647,0,0,1,1,2,2,3,3,4,4,5,5,6,6],"right_children":[2,4,6,8,10,12,14,-1,-1,-1,-1,-1,-1,-1,-1],"split_conditions":[1E0,9.355E1,2.95E1,1E0,6.58685E3,2.57E1,2.002E2,-7.959956E-3,-1.1062806E-2,-1.7824426E-3,-7.0801782E-3,3.7504372E-3,-6.8603996E-3,1.1661921E-2,3.5759555E-3],"split_indices":[2,1,1,9,3,3,3,0,0,0,0,0,0,0,0],"split_type":[0,0,0,0,0,0,0,0,0,0,0,0,0,0,0],"sum_hessian":[9.547938E2,3.4756323E2,6.072306E2,2.5673105E2,9.083219E1,8.8876045E1,5.1835455E2,1.21754715E2,1.3497633E2,4.7194637E1,4.3637558E1,2.7024734E1,6.185131E1,1.1489698E2,4.0345758E2],"tree_param":{"num_deleted":"0","num_feature":"12","num_nodes":"15","size_leaf_vector":"1"}},{"base_weights":[-5.793855E-2,-7.8335696E-1,3.6261335E-1,-9.434287E-1,-3.7299353E-1,-2.6351864E-2,6.445814E-1,-7.7531473E-3,-1.0912399E-2,-3.7130943E-5,-7.943339E-3,4.162492E-3,-3.599147E-3,9.777917E-3,2.4326895E-3],"categories":[],"categories_nodes":[],"categories_segments":[],"categories_sizes":[],"default_left":[0,0,0,0,0,0,0,0,0,0,0,0,0,0,0],"id":57,"left_children":[1,3,5,7,9,11,13,-1,-1,-1,-1,-1,-1,-1,-1],"loss_changes":[2.8759872E2,2.2371658E1,6.5476555E1,5.321686E0,1.5358352E1,3.7323315E1,4.603691E1,0E0,0E0,0E0,0E0,0E0,0E0,0E0,0E0],"parents":[2147483647,0,0,1,1,2,2,3,3,4,4,5,5,6,6],"right_children":[2,4,6,8,10,12,14,-1,-1,-1,-1,-1,-1,-1,-1],"split_conditions":[1E0,9.41E1,1E0,1E0,1E0,5E0,1.5386E3,-7.7531473E-3,-1.0912399E-2,-3.7130943E-5,-7.943339E-3,4.162492E-3,-3.599147E-3,9.777917E-3,2.4326895E-3],"split_indices":[2,1,4,9,9,0,3,0,0,0,0,0,0,0,0],"split_type":[0,0,0,0,0,0,0,0,0,0,0,0,0,0,0],"sum_hessian":[9.4078033E2,3.4493402E2,5.958463E2,2.4720642E2,9.772761E1,2.5079279E2,3.450535E2,1.1858188E2,1.2862453E2,5.2618958E1,4.5108654E1,1.0767373E2,1.4311905E2,1.8773792E2,1.573156E2],"tree_param":{"num_deleted":"0","num_feature":"12","num_nodes":"15","size_leaf_vector":"1"}},{"base_weights":[-5.832383E-2,4.07795E-1,-4.9791992E-1,-5.6405764E-2,8.99799E-1,-8.987982E-1,-1.14345446E-1,5.1700776E-3,-3.580208E-3,1.5244799E-2,7.461581E-3,-9.476652E-3,-3.904983E-3,1.2268992E-3,-5.9843394E-3],"categories":[],"categories_nodes":[],"categories_segments":[],"categories_sizes":[],"default_left":[0,0,0,0,0,0,0,0,0,0,0,0,0,0,0],"id":58,"left_children":[1,3,5,7,9,11,13,-1,-1,-1,-1,-1,-1,-1,-1],"loss_changes":[1.8958015E2,1.0262675E2,7.310468E1,4.0315605E1,1.9794388E1,5.4087677E0,2.8122408E1,0E0,0E0,0E0,0E0,0E0,0E0,0E0,0E0],"parents":[2147483647,0,0,1,1,2,2,3,3,4,4,5,5,6,6],"right_children":[2,4,6,8,10,12,14,-1,-1,-1,-1,-1,-1,-1,-1],"split_conditions":[2.3E1,1E0,1E0,3E0,1.183E2,1E0,6E1,5.1700776E-3,-3.580208E-3,1.5244799E-2,7.461581E-3,-9.476652E-3,-3.904983E-3,1.2268992E-3,-5.9843394E-3],"split_indices":[0,4,4,0,3,11,0,0,0,0,0,0,0,0,0],"split_type":[0,0,0,0,0,0,0,0,0,0,0,0,0,0,0],"sum_hessian":[9.2322345E2,4.481291E2,4.7509436E2,2.3103513E2,2.1709396E2,2.3165045E2,2.434439E2,7.9389725E1,1.516454E2,4.1093113E1,1.7600085E2,2.1054468E2,2.1105776E1,1.639244E2,7.95195E1],"tree_param":{"num_deleted":"0","num_feature":"12","num_nodes":"15","size_leaf_vector":"1"}},{"base_weights":[-5.3375807E-2,-7.839949E-1,3.594723E-1,-5.348602E-1,-1.0287861E0,-2.2831548E-2,6.2674195E-1,-6.918048E-3,3.6147278E-4,-1.1163358E-2,-7.603782E-3,3.69793E-3,-3.6065262E-3,9.974747E-3,2.4997345E-3],"categories":[],"categories_nodes":[],"categories_segments":[],"categories_sizes":[],"default_left":[0,0,0,0,0,0,0,0,0,0,0,0,0,0,0],"id":59,"left_children":[1,3,5,7,9,11,13,-1,-1,-1,-1,-1,-1,-1,-1],"loss_changes":[2.864529E2,2.035904E1,6.2024185E1,1.543927E1,3.1895294E0,3.3381176E1,4.9646164E1,0E0,0E0,0E0,0E0,0E0,0E0,0E0,0E0],"parents":[2147483647,0,0,1,1,2,2,3,3,4,4,5,5,6,6],"right_children":[2,4,6,8,10,12,14,-1,-1,-1,-1,-1,-1,-1,-1],"split_conditions":[1E0,1E0,1E0,1E2,9.23E1,6E0,1.5E1,-6.918048E-3,3.6147278E-4,-1.1163358E-2,-7.603782E-3,3.69793E-3,-3.6065262E-3,9.974747E-3,2.4997345E-3],"split_indices":[2,9,4,1,1,0,0,0,0,0,0,0,0,0,0],"split_type":[0,0,0,0,0,0,0,0,0,0,0,0,0,0,0],"sum_hessian":[9.4773395E2,3.4185416E2,6.0587976E2,1.7100246E2,1.7085172E2,2.4966798E2,3.562118E2,1.3396883E2,3.7033638E1,1.2644771E2,4.4404E1,1.1542425E2,1.3424374E2,1.7871364E2,1.7749815E2],"tree_param":{"num_deleted":"0","num_feature":"12","num_nodes":"15","size_leaf_vector":"1"}},{"base_weights":[-5.7975788E-2,-4.266403E-1,5.348306E-1,2.4958573E-1,-5.5687743E-1,1.1843886E0,3.557132E-1,7.1613066E-4,1.3104696E-2,-8.353538E-3,-1.4993645E-3,8.122063E-3,1.33575685E-2,-2.4333878E-3,5.600602E-3],"categories":[],"categories_nodes":[],"categories_segments":[],"categories_sizes":[],"default_left":[0,0,0,0,0,0,0,0,0,0,0,0,0,0,0],"id":60,"left_children":[1,3,5,7,9,11,13,-1,-1,-1,-1,-1,-1,-1,-1],"loss_changes":[2.0770644E2,5.1738358E1,4.198284E1,1.790096E1,5.5582855E1,3.3290024E0,3.5283134E1,0E0,0E0,0E0,0E0,0E0,0E0,0E0,0E0],"parents":[2147483647,0,0,1,1,2,2,3,3,4,4,5,5,6,6],"right_children":[2,4,6,8,10,12,14,-1,-1,-1,-1,-1,-1,-1,-1],"split_conditions":[1E0,1.561E2,1.844E2,1E0,1E0,1E0,1E0,7.1613066E-4,1.3104696E-2,-8.353538E-3,-1.4993645E-3,8.122063E-3,1.33575685E-2,-2.4333878E-3,5.600602E-3],"split_indices":[6,3,3,4,4,5,4,0,0,0,0,0,0,0,0],"split_type":[0,0,0,0,0,0,0,0,0,0,0,0,0,0,0],"sum_hessian":[9.4835443E2,5.848921E2,3.6346234E2,9.430727E1,4.9058484E2,7.734892E1,2.8611343E2,8.167334E1,1.2633923E1,2.906414E2,1.9994345E2,2.4203474E1,5.3145447E1,7.27253E1,2.1338812E2],"tree_param":{"num_deleted":"0","num_feature":"12","num_nodes":"15","size_leaf_vector":"1"}},{"base_weights":[-4.3296583E-2,-8.1373394E-1,3.9007556E-1,-9.656182E-1,-4.1682938E-1,-4.9326718E-1,5.108423E-1,-1.0186491E-2,-5.88068E-3,-2.5179887E-3,-8.740571E-3,6.018559E-4,-7.752041E-3,8.16768E-3,2.480313E-3],"categories":[],"categories_nodes":[],"categories_segments":[],"categories_sizes":[],"default_left":[0,0,0,0,0,0,0,0,0,0,0,0,0,0,0],"id":61,"left_children":[1,3,5,7,9,11,13,-1,-1,-1,-1,-1,-1,-1,-1],"loss_changes":[3.118824E2,1.9868317E1,6.403392E1,4.254959E0,6.9349327E0,1.1346743E1,4.2126083E1,0E0,0E0,0E0,0E0,0E0,0E0,0E0,0E0],"parents":[2147483647,0,0,1,1,2,2,3,3,4,4,5,5,6,6],"right_children":[2,4,6,8,10,12,14,-1,-1,-1,-1,-1,-1,-1,-1],"split_conditions":[1E0,9.355E1,2.305E1,1E0,7.1E1,2E0,1.1E1,-1.0186491E-2,-5.88068E-3,-2.5179887E-3,-8.740571E-3,6.018559E-4,-7.752041E-3,8.16768E-3,2.480313E-3],"split_indices":[2,1,1,6,0,0,0,0,0,0,0,0,0,0,0],"split_type":[0,0,0,0,0,0,0,0,0,0,0,0,0,0,0],"sum_hessian":[9.3214746E2,3.352577E2,5.9688983E2,2.4143459E2,9.38231E1,7.141846E1,5.254714E2,2.102103E2,3.1224293E1,7.0079506E1,2.3743593E1,2.4368568E1,4.704989E1,2.4184422E2,2.8362714E2],"tree_param":{"num_deleted":"0","num_feature":"12","num_nodes":"15","size_leaf_vector":"1"}},{"base_weights":[-3.3457182E-2,4.3068567E-1,-4.7741225E-1,-3.68466E-1,6.6739887E-1,-9.085652E-1,-1.7579004E-1,2.8075206E-3,-7.1795466E-3,1.2047581E-2,5.131676E-3,-1.1034482E-2,-7.507743E-3,2.5606155E-3,-5.468965E-3],"categories":[],"categories_nodes":[],"categories_segments":[],"categories_sizes":[],"default_left":[0,0,0,0,0,0,0,0,0,0,0,0,0,0,0],"id":62,"left_children":[1,3,5,7,9,11,13,-1,-1,-1,-1,-1,-1,-1,-1],"loss_changes":[1.9223943E2,8.653299E1,6.184617E1,2.3998083E1,2.8575928E1,5.1993103E0,4.5299324E1,0E0,0E0,0E0,0E0,0E0,0E0,0E0,0E0],"parents":[2147483647,0,0,1,1,2,2,3,3,4,4,5,5,6,6],"right_children":[2,4,6,8,10,12,14,-1,-1,-1,-1,-1,-1,-1,-1],"split_conditions":[2.3E1,2.95E1,7.39E1,4.025E1,1.025E2,2.64E1,5E1,2.8075206E-3,-7.1795466E-3,1.2047581E-2,5.131676E-3,-1.1034482E-2,-7.507743E-3,2.5606155E-3,-5.468965E-3],"split_indices":[0,1,1,3,3,1,0,0,0,0,0,0,0,0,0],"split_type":[0,0,0,0,0,0,0,0,0,0,0,0,0,0,0],"sum_hessian":[9.3093787E2,4.5513577E2,4.758021E2,1.03879265E2,3.5125653E2,1.9501962E2,2.8078247E2,3.6420467E1,6.74588E1,7.681452E1,2.74442E2,8.45729E1,1.10446724E2,1.2991368E2,1.508688E2],"tree_param":{"num_deleted":"0","num_feature":"12","num_nodes":"15","size_leaf_vector":"1"}},{"base_weights":[-4.7520075E-2,4.0864113E-1,-4.912035E-1,-5.5467135E-1,6.305435E-1,-8.9249814E-1,-1.05727576E-1,9.881024E-4,-8.547471E-3,2.7838114E-3,8.798136E-3,-9.453686E-3,-3.6560446E-3,2.0324737E-3,-4.3206317E-3],"categories":[],"categories_nodes":[],"categories_segments":[],"categories_sizes":[],"default_left":[0,0,0,0,0,0,0,0,0,0,0,0,0,0,0],"id":63,"left_children":[1,3,5,7,9,11,13,-1,-1,-1,-1,-1,-1,-1,-1],"loss_changes":[1.8803381E2,9.828366E1,7.275251E1,1.7009052E1,3.2484085E1,6.0780334E0,2.442104E1,0E0,0E0,0E0,0E0,0E0,0E0,0E0,0E0],"parents":[2147483647,0,0,1,1,2,2,3,3,4,4,5,5,6,6],"right_children":[2,4,6,8,10,12,14,-1,-1,-1,-1,-1,-1,-1,-1],"split_conditions":[2.3E1,2.305E1,1E0,3.5E1,1E0,1E0,5.1E1,9.881024E-4,-8.547471E-3,2.7838114E-3,8.798136E-3,-9.453686E-3,-3.6560446E-3,2.0324737E-3,-4.3206317E-3],"split_indices":[0,1,4,3,4,11,0,0,0,0,0,0,0,0,0],"split_type":[0,0,0,0,0,0,0,0,0,0,0,0,0,0,0],"sum_hessian":[9.2706964E2,4.5714612E2,4.6992352E2,8.53086E1,3.7183752E2,2.2959322E2,2.4033032E2,2.7056904E1,5.82517E1,1.549894E2,2.1684811E2,2.0793408E2,2.1659134E1,1.2364257E2,1.1668775E2],"tree_param":{"num_deleted":"0","num_feature":"12","num_nodes":"15","size_leaf_vector":"1"}},{"base_weights":[-4.8628416E-2,-8.011411E-1,3.814222E-1,-9.1669655E-1,-2.8325444E-1,3.7875593E-2,7.231271E-1,-1.0891852E-2,-8.016961E-3,3.0320694E-3,-5.753717E-3,-5.0314493E-3,2.0414297E-3,9.5124375E-3,3.0591497E-3],"categories":[],"categories_nodes":[],"categories_segments":[],"categories_sizes":[],"default_left":[0,0,0,0,0,0,0,0,0,0,0,0,0,0,0],"id":64,"left_children":[1,3,5,7,9,11,13,-1,-1,-1,-1,-1,-1,-1,-1],"loss_changes":[2.9891003E2,1.9840576E1,6.8979126E1,4.5650024E0,1.0919147E1,2.6565521E1,2.7751785E1,0E0,0E0,0E0,0E0,0E0,0E0,0E0,0E0],"parents":[2147483647,0,0,1,1,2,2,3,3,4,4,5,5,6,6],"right_children":[2,4,6,8,10,12,14,-1,-1,-1,-1,-1,-1,-1,-1],"split_conditions":[1E0,1.015E2,1E0,4.065E1,6.50615E3,2.56E1,1.9E1,-1.0891852E-2,-8.016961E-3,3.0320694E-3,-5.753717E-3,-5.0314493E-3,2.0414297E-3,9.5124375E-3,3.0591497E-3],"split_indices":[2,1,6,1,3,1,0,0,0,0,0,0,0,0,0],"split_type":[0,0,0,0,0,0,0,0,0,0,0,0,0,0,0],"sum_hessian":[9.217052E2,3.3487323E2,5.86832E2,2.7315448E2,6.1718735E1,2.9318134E2,2.9365063E2,1.0587775E2,1.6727675E2,2.0508142E1,4.1210594E1,6.844401E1,2.2473732E2,1.8902081E2,1.0462981E2],"tree_param":{"num_deleted":"0","num_feature":"12","num_nodes":"15","size_leaf_vector":"1"}},{"base_weights":[-6.113291E-2,-7.6527864E-1,3.371213E-1,-9.129309E-1,-4.0182853E-1,-4.8328072E-1,4.3822026E-1,-7.356929E-3,-1.07217105E-2,-2.771697E-3,-1.0353881E-2,9.047526E-4,-7.806915E-3,8.99447E-3,1.7483128E-3],"categories":[],"categories_nodes":[],"categories_segments":[],"categories_sizes":[],"default_left":[0,0,0,0,0,0,0,0,0,0,0,0,0,0,0],"id":65,"left_children":[1,3,5,7,9,11,13,-1,-1,-1,-1,-1,-1,-1,-1],"loss_changes":[2.6427246E2,1.7901596E1,5.0146515E1,6.0212708E0,7.621195E0,1.1422827E1,6.502015E1,0E0,0E0,0E0,0E0,0E0,0E0,0E0,0E0],"parents":[2147483647,0,0,1,1,2,2,3,3,4,4,5,5,6,6],"right_children":[2,4,6,8,10,12,14,-1,-1,-1,-1,-1,-1,-1,-1],"split_conditions":[1E0,9.355E1,2.085E1,1E0,7.2E1,2E0,7E0,-7.356929E-3,-1.07217105E-2,-2.771697E-3,-1.0353881E-2,9.047526E-4,-7.806915E-3,8.99447E-3,1.7483128E-3],"split_indices":[2,1,1,9,0,0,0,0,0,0,0,0,0,0,0],"split_type":[0,0,0,0,0,0,0,0,0,0,0,0,0,0,0],"sum_hessian":[9.4046643E2,3.39421E2,6.010454E2,2.4029065E2,9.913034E1,6.552668E1,5.3551874E2,1.1637862E2,1.2391203E2,8.403345E1,1.5096893E1,2.2607931E1,4.2918747E1,1.9377675E2,3.41742E2],"tree_param":{"num_deleted":"0","num_feature":"12","num_nodes":"15","size_leaf_vector":"1"}},{"base_weights":[-3.890021E-2,1.6908744E-1,-9.9057144E-1,-2.3419304E-1,5.08381E-1,-1.0986217E0,-6.9733006E-1,3.4147545E-3,-5.0065015E-3,8.030313E-3,-3.1453455E-4,-1.1191504E-2,-6.610652E-3,-5.037465E-3,-1.0332283E-2],"categories":[],"categories_nodes":[],"categories_segments":[],"categories_sizes":[],"default_left":[0,0,0,0,0,0,0,0,0,0,0,0,0,0,0],"id":66,"left_children":[1,3,5,7,9,11,13,-1,-1,-1,-1,-1,-1,-1,-1],"loss_changes":[1.862754E2,1.0581551E2,4.5816956E0,5.4415337E1,6.680411E1,3.5243225E-1,2.6125793E0,0E0,0E0,0E0,0E0,0E0,0E0,0E0,0E0],"parents":[2147483647,0,0,1,1,2,2,3,3,4,4,5,5,6,6],"right_children":[2,4,6,8,10,12,14,-1,-1,-1,-1,-1,-1,-1,-1],"split_conditions":[1E0,1E0,1E0,5E0,3.09005E3,1E0,7.2E1,3.4147545E-3,-5.0065015E-3,8.030313E-3,-3.1453455E-4,-1.1191504E-2,-6.610652E-3,-5.037465E-3,-1.0332283E-2],"split_indices":[9,4,4,0,3,11,0,0,0,0,0,0,0,0,0],"split_type":[0,0,0,0,0,0,0,0,0,0,0,0,0,0,0],"sum_hessian":[9.392436E2,7.7146277E2,1.6778079E2,3.5263483E2,4.1882797E2,1.20597786E2,4.7183E1,1.1148816E2,2.4114665E2,2.7062756E2,1.4820042E2,1.1370539E2,6.892397E0,3.1518236E1,1.5664762E1],"tree_param":{"num_deleted":"0","num_feature":"12","num_nodes":"15","size_leaf_vector":"1"}},{"base_weights":[-4.325497E-2,-7.684359E-1,3.5557884E-1,-5.5147046E-1,-9.724492E-1,3.5019785E-2,6.785744E-1,-8.924114E-3,-3.129603E-3,-1.0173385E-2,-6.180078E-3,2.335611E-3,-2.5637096E-3,8.464107E-3,1.4890049E-3],"categories":[],"categories_nodes":[],"categories_segments":[],"categories_sizes":[],"default_left":[0,0,0,0,0,0,0,0,0,0,0,0,0,0,0],"id":67,"left_children":[1,3,5,7,9,11,13,-1,-1,-1,-1,-1,-1,-1,-1],"loss_changes":[2.6951578E2,1.4098648E1,6.2231827E1,1.2937977E1,2.0615997E0,1.7579567E1,2.6494232E1,0E0,0E0,0E0,0E0,0E0,0E0,0E0,0E0],"parents":[2147483647,0,0,1,1,2,2,3,3,4,4,5,5,6,6],"right_children":[2,4,6,8,10,12,14,-1,-1,-1,-1,-1,-1,-1,-1],"split_conditions":[1E0,1E0,1E0,3E0,1E0,1.7E1,2.8E1,-8.924114E-3,-3.129603E-3,-1.0173385E-2,-6.180078E-3,2.335611E-3,-2.5637096E-3,8.464107E-3,1.4890049E-3],"split_indices":[2,9,6,8,6,0,0,0,0,0,0,0,0,0,0],"split_type":[0,0,0,0,0,0,0,0,0,0,0,0,0,0,0],"sum_hessian":[9.2990497E2,3.296291E2,6.002759E2,1.6153833E2,1.6809074E2,3.0183057E2,2.984453E2,6.5362946E1,9.6175385E1,1.4753543E2,2.0555319E1,1.7963402E2,1.22196556E2,2.261787E2,7.226661E1],"tree_param":{"num_deleted":"0","num_feature":"12","num_nodes":"15","size_leaf_vector":"1"}},{"base_weights":[-5.345385E-2,-7.903944E-1,3.4741548E-1,-9.647888E-1,-3.4900633E-1,-1.7758874E-2,6.0177004E-1,-1.0259399E-2,-5.415659E-3,4.908623E-4,-7.914745E-3,-1.990978E-3,3.4601E-3,1.9072526E-3,7.0642987E-3],"categories":[],"categories_nodes":[],"categories_segments":[],"categories_sizes":[],"default_left":[0,0,0,0,0,0,0,0,0,0,0,0,0,0,0],"id":68,"left_children":[1,3,5,7,9,11,13,-1,-1,-1,-1,-1,-1,-1,-1],"loss_changes":[2.7727264E2,2.5115692E1,5.648365E1,5.5637207E0,1.6809628E1,1.6599234E1,1.5283798E1,0E0,0E0,0E0,0E0,0E0,0E0,0E0,0E0],"parents":[2147483647,0,0,1,1,2,2,3,3,4,4,5,5,6,6],"right_children":[2,4,6,8,10,12,14,-1,-1,-1,-1,-1,-1,-1,-1],"split_conditions":[1E0,9.355E1,1E0,1E0,1E0,1E0,1E0,-1.0259399E-2,-5.415659E-3,4.908623E-4,-7.914745E-3,-1.990978E-3,3.4601E-3,1.9072526E-3,7.0642987E-3],"split_indices":[2,1,4,6,9,6,5,0,0,0,0,0,0,0,0],"split_type":[0,0,0,0,0,0,0,0,0,0,0,0,0,0,0],"sum_hessian":[9.366515E2,3.2965555E2,6.06996E2,2.3544456E2,9.421098E1,2.4959091E2,3.5740503E2,2.0447588E2,3.0968676E1,5.006033E1,4.415065E1,1.6686255E2,8.272837E1,7.310646E1,2.8429858E2],"tree_param":{"num_deleted":"0","num_feature":"12","num_nodes":"15","size_leaf_vector":"1"}},{"base_weights":[-1.6891776E-2,-3.659617E-1,5.128387E-1,1.210233E-1,-6.570187E-1,7.835508E-1,1.2661009E-1,-5.2816835E-3,4.984769E-3,-8.855074E-3,-3.4045451E-3,1.2850816E-2,6.3323365E-3,-6.0752146E-3,3.9117006E-3],"categories":[],"categories_nodes":[],"categories_segments":[],"categories_sizes":[],"default_left":[0,0,0,0,0,0,0,0,0,0,0,0,0,0,0],"id":69,"left_children":[1,3,5,7,9,11,13,-1,-1,-1,-1,-1,-1,-1,-1],"loss_changes":[1.710942E2,7.912995E1,3.8329674E1,5.1593895E1,2.4959076E1,1.5462051E1,2.9885403E1,0E0,0E0,0E0,0E0,0E0,0E0,0E0,0E0],"parents":[2147483647,0,0,1,1,2,2,3,3,4,4,5,5,6,6],"right_children":[2,4,6,8,10,12,14,-1,-1,-1,-1,-1,-1,-1,-1],"split_conditions":[1E0,1.8E1,2.3E1,2.95E1,1E0,2E0,1E0,-5.2816835E-3,4.984769E-3,-8.855074E-3,-3.4045451E-3,1.2850816E-2,6.3323365E-3,-6.0752146E-3,3.9117006E-3],"split_indices":[6,0,0,1,4,0,4,0,0,0,0,0,0,0,0],"split_type":[0,0,0,0,0,0,0,0,0,0,0,0,0,0,0],"sum_hessian":[9.232537E2,5.5671277E2,3.6654092E2,2.0847871E2,3.4823404E2,2.1489198E2,1.5164894E2,7.6501915E1,1.319768E2,2.0120891E2,1.4702515E2,4.7813564E1,1.6707841E2,3.9829395E1,1.1181956E2],"tree_param":{"num_deleted":"0","num_feature":"12","num_nodes":"15","size_leaf_vector":"1"}},{"base_weights":[-1.7387187E-2,-7.706777E-1,3.7870318E-1,-8.9058465E-1,-2.329695E-1,8.4520504E-2,6.6818833E-1,-1.0759244E-2,-7.6250015E-3,2.5826811E-3,-6.7865998E-3,-4.2436607E-3,2.2371486E-3,1.1785325E-2,5.085809E-3],"categories":[],"categories_nodes":[],"categories_segments":[],"categories_sizes":[],"default_left":[0,0,0,0,0,0,0,0,0,0,0,0,0,0,0],"id":70,"left_children":[1,3,5,7,9,11,13,-1,-1,-1,-1,-1,-1,-1,-1],"loss_changes":[2.791382E2,2.0578644E1,5.2162132E1,5.429016E0,1.33418255E1,2.1717983E1,2.4562683E1,0E0,0E0,0E0,0E0,0E0,0E0,0E0,0E0],"parents":[2147483647,0,0,1,1,2,2,3,3,4,4,5,5,6,6],"right_children":[2,4,6,8,10,12,14,-1,-1,-1,-1,-1,-1,-1,-1],"split_conditions":[1E0,1.015E2,1E0,4.065E1,6.9946E3,2.51E1,3E0,-1.0759244E-2,-7.6250015E-3,2.5826811E-3,-6.7865998E-3,-4.2436607E-3,2.2371486E-3,1.1785325E-2,5.085809E-3],"split_indices":[2,1,6,1,3,1,0,0,0,0,0,0,0,0,0],"split_type":[0,0,0,0,0,0,0,0,0,0,0,0,0,0,0],"sum_hessian":[9.335622E2,3.2139078E2,6.1217145E2,2.6225305E2,5.913773E1,3.0426303E2,3.079084E2,1.0414864E2,1.581044E2,2.8331465E1,3.0806265E1,6.490937E1,2.3935367E2,7.1834366E1,2.3607402E2],"tree_param":{"num_deleted":"0","num_feature":"12","num_nodes":"15","size_leaf_vector":"1"}},{"base_weights":[-4.4248607E-2,1.5260172E-1,-9.7233623E-1,-2.3534414E-1,4.6694878E-1,-1.0731794E0,-6.6111773E-1,2.3834086E-3,-5.7962853E-3,8.782986E-3,1.7399907E-3,-1.0917874E-2,-6.8510175E-3,6.5291272E-3,-7.1713524E-3],"categories":[],"categories_nodes":[],"categories_segments":[],"categories_sizes":[],"default_left":[0,0,0,0,0,0,0,0,0,0,0,0,0,0,0],"id":71,"left_children":[1,3,5,7,9,11,13,-1,-1,-1,-1,-1,-1,-1,-1],"loss_changes":[1.6809535E2,9.270386E1,4.3433228E0,5.567089E1,5.0430367E1,1.1853027E-1,3.5601768E0,0E0,0E0,0E0,0E0,0E0,0E0,0E0,0E0],"parents":[2147483647,0,0,1,1,2,2,3,3,4,4,5,5,6,6],"right_children":[2,4,6,8,10,12,14,-1,-1,-1,-1,-1,-1,-1,-1],"split_conditions":[1E0,1E0,9.355E1,3.1445E2,1.1678E3,1E0,9.45E1,2.3834086E-3,-5.7962853E-3,8.782986E-3,1.7399907E-3,-1.0917874E-2,-6.8510175E-3,6.5291272E-3,-7.1713524E-3],"split_indices":[9,4,1,3,3,6,1,0,0,0,0,0,0,0,0],"split_type":[0,0,0,0,0,0,0,0,0,0,0,0,0,0,0],"sum_hessian":[9.1827844E2,7.5828033E2,1.599981E2,3.395196E2,4.1876077E2,1.1899289E2,4.1005203E1,1.4303377E2,1.9648582E2,1.7335025E2,2.4541052E2,1.1181795E2,7.174941E0,1.2409157E0,3.976429E1],"tree_param":{"num_deleted":"0","num_feature":"12","num_nodes":"15","size_leaf_vector":"1"}},{"base_weights":[-7.94431E-2,-7.7865523E-1,3.0794686E-1,-9.3071556E-1,-3.8932395E-1,-3.921109E-2,5.5523694E-1,-1.1023877E-2,-7.868399E-3,-2.394929E-3,-1.0408675E-2,3.9261025E-3,-3.8099717E-3,9.361369E-3,1.938846E-3],"categories":[],"categories_nodes":[],"categories_segments":[],"categories_sizes":[],"default_left":[0,0,0,0,0,0,0,0,0,0,0,0,0,0,0],"id":72,"left_children":[1,3,5,7,9,11,13,-1,-1,-1,-1,-1,-1,-1,-1],"loss_changes":[2.5206924E2,1.9277283E1,5.1442863E1,5.007263E0,9.014489E0,3.706296E1,4.7973854E1,0E0,0E0,0E0,0E0,0E0,0E0,0E0,0E0],"parents":[2147483647,0,0,1,1,2,2,3,3,4,4,5,5,6,6],"right_children":[2,4,6,8,10,12,14,-1,-1,-1,-1,-1,-1,-1,-1],"split_conditions":[1E0,9.355E1,1E0,4.065E1,7.2E1,5E0,1.5E1,-1.1023877E-2,-7.868399E-3,-2.394929E-3,-1.0408675E-2,3.9261025E-3,-3.8099717E-3,9.361369E-3,1.938846E-3],"split_indices":[2,1,4,1,0,0,0,0,0,0,0,0,0,0,0],"split_type":[0,0,0,0,0,0,0,0,0,0,0,0,0,0,0],"sum_hessian":[9.287137E2,3.307403E2,5.979734E2,2.3684549E2,9.38948E1,2.4910667E2,3.4886676E2,1.0495327E2,1.3189223E2,7.745141E1,1.6443396E1,1.0999167E2,1.39115E2,1.690652E2,1.7980154E2],"tree_param":{"num_deleted":"0","num_feature":"12","num_nodes":"15","size_leaf_vector":"1"}},{"base_weights":[-7.032289E-2,-7.7907944E-1,3.0558544E-1,-5.3479546E-1,-1.0215667E0,-9.907972E-2,5.8412135E-1,-7.825418E-3,-1.8422955E-3,-1.07096825E-2,-8.769092E-3,2.6499864E-3,-3.298748E-3,8.827599E-3,2.1579573E-3],"categories":[],"categories_nodes":[],"categories_segments":[],"categories_sizes":[],"default_left":[0,0,0,0,0,0,0,0,0,0,0,0,0,0,0],"id":73,"left_children":[1,3,5,7,9,11,13,-1,-1,-1,-1,-1,-1,-1,-1],"loss_changes":[2.4408476E2,1.8259567E1,6.754761E1,1.3773811E1,1.915741E-1,2.0671577E1,3.8836327E1,0E0,0E0,0E0,0E0,0E0,0E0,0E0,0E0],"parents":[2147483647,0,0,1,1,2,2,3,3,4,4,5,5,6,6],"right_children":[2,4,6,8,10,12,14,-1,-1,-1,-1,-1,-1,-1,-1],"split_conditions":[1E0,1E0,1E0,1E0,1E0,4E0,1.8E1,-7.825418E-3,-1.8422955E-3,-1.07096825E-2,-8.769092E-3,2.6499864E-3,-3.298748E-3,8.827599E-3,2.1579573E-3],"split_indices":[2,9,4,4,4,0,0,0,0,0,0,0,0,0,0],"split_type":[0,0,0,0,0,0,0,0,0,0,0,0,0,0,0],"sum_hessian":[9.1424603E2,3.164752E2,5.977708E2,1.5925038E2,1.5722481E2,2.4396933E2,3.5380148E2,9.258672E1,6.666365E1,1.12426865E2,4.4797947E1,9.459612E1,1.4937321E2,1.9461273E2,1.5918877E2],"tree_param":{"num_deleted":"0","num_feature":"12","num_nodes":"15","size_leaf_vector":"1"}},{"base_weights":[-3.6709346E-2,1.5267383E-1,-9.7815436E-1,-2.1763544E-1,4.6208498E-1,-1.079552E0,-6.802042E-1,1.4047172E-3,-5.9412112E-3,9.060472E-3,9.453508E-4,-1.1088131E-2,-5.9760027E-3,-4.345884E-3,-1.0711816E-2],"categories":[],"categories_nodes":[],"categories_segments":[],"categories_sizes":[],"default_left":[0,0,0,0,0,0,0,0,0,0,0,0,0,0,0],"id":74,"left_children":[1,3,5,7,9,11,13,-1,-1,-1,-1,-1,-1,-1,-1],"loss_changes":[1.65694E2,8.876786E1,3.967575E0,4.7668163E1,6.876202E1,9.508667E-1,3.5888443E0,0E0,0E0,0E0,0E0,0E0,0E0,0E0,0E0],"parents":[2147483647,0,0,1,1,2,2,3,3,4,4,5,5,6,6],"right_children":[2,4,6,8,10,12,14,-1,-1,-1,-1,-1,-1,-1,-1],"split_conditions":[1E0,1E0,9.23E1,1.3E1,1.7E1,1E0,7.2E1,1.4047172E-3,-5.9412112E-3,9.060472E-3,9.453508E-4,-1.1088131E-2,-5.9760027E-3,-4.345884E-3,-1.0711816E-2],"split_indices":[9,4,1,0,0,6,0,0,0,0,0,0,0,0,0],"split_type":[0,0,0,0,0,0,0,0,0,0,0,0,0,0,0],"sum_hessian":[9.274935E2,7.7286096E2,1.546326E2,3.5194406E2,4.2091687E2,1.1341292E2,4.1219677E1,1.806959E2,1.7124815E2,1.89978E2,2.3093889E2,1.056951E2,7.717824E0,2.66128E1,1.4606875E1],"tree_param":{"num_deleted":"0","num_feature":"12","num_nodes":"15","size_leaf_vector":"1"}},{"base_weights":[-3.1901557E-2,1.7099561E-1,-1.0124131E0,6.36757E-1,-1.9248797E-2,-1.0874554E-2,-7.926459E-1,-1.961557E-3,8.373595E-3,-4.832061E-3,2.8673518E-3,2.0676185E-3,-8.445752E-3],"categories":[],"categories_nodes":[],"categories_segments":[],"categories_sizes":[],"default_left":[0,0,0,0,0,0,0,0,0,0,0,0,0],"id":75,"left_children":[1,3,5,7,9,-1,11,-1,-1,-1,-1,-1,-1],"loss_changes":[1.8359247E2,6.777576E1,1.7473297E0,3.7225334E1,7.735836E1,0E0,2.4561958E0,0E0,0E0,0E0,0E0,0E0,0E0],"parents":[2147483647,0,0,1,1,2,2,3,3,4,4,6,6],"right_children":[2,4,6,8,10,-1,12,-1,-1,-1,-1,-1,-1],"split_conditions":[1E0,6E0,9.23E1,2.4E1,7.36E1,-1.0874554E-2,9.43E1,-1.961557E-3,8.373595E-3,-4.832061E-3,2.8673518E-3,2.0676185E-3,-8.445752E-3],"split_indices":[9,0,1,1,1,0,1,0,0,0,0,0,0],"split_type":[0,0,0,0,0,0,0,0,0,0,0,0,0],"sum_hessian":[9.209692E2,7.637517E2,1.5721745E2,2.2081052E2,5.429412E2,1.14255325E2,4.296213E1,4.286303E1,1.7794748E2,2.1554121E2,3.274E2,1.974781E0,4.098735E1],"tree_param":{"num_deleted":"0","num_feature":"12","num_nodes":"13","size_leaf_vector":"1"}},{"base_weights":[-3.2350045E-2,-7.3279065E-1,3.362795E-1,-5.086769E-1,-9.505492E-1,5.8193665E-2,6.141619E-1,-7.066061E-3,-1.5781731E-3,-9.863187E-3,-6.3662315E-3,3.962262E-3,-1.3291881E-3,1.13866925E-2,4.5426474E-3],"categories":[],"categories_nodes":[],"categories_segments":[],"categories_sizes":[],"default_left":[0,0,0,0,0,0,0,0,0,0,0,0,0,0,0],"id":76,"left_children":[1,3,5,7,9,11,13,-1,-1,-1,-1,-1,-1,-1,-1],"loss_changes":[2.3860599E2,1.5066391E1,4.6755875E1,1.0942368E1,1.1738281E0,1.9675829E1,2.4874878E1,0E0,0E0,0E0,0E0,0E0,0E0,0E0,0E0],"parents":[2147483647,0,0,1,1,2,2,3,3,4,4,5,5,6,6],"right_children":[2,4,6,8,10,12,14,-1,-1,-1,-1,-1,-1,-1,-1],"split_conditions":[1E0,1E0,1E0,4E0,1E0,6E0,3E0,-7.066061E-3,-1.5781731E-3,-9.863187E-3,-6.3662315E-3,3.962262E-3,-1.3291881E-3,1.13866925E-2,4.5426474E-3],"split_indices":[2,9,6,8,6,0,0,0,0,0,0,0,0,0,0],"split_type":[0,0,0,0,0,0,0,0,0,0,0,0,0,0,0],"sum_hessian":[9.221475E2,3.1762805E2,6.045195E2,1.5817387E2,1.5945418E2,3.027536E2,3.0176587E2,1.0047777E2,5.7696106E1,1.4122122E2,1.8232948E1,1.0895856E2,1.9379504E2,6.907134E1,2.3269452E2],"tree_param":{"num_deleted":"0","num_feature":"12","num_nodes":"15","size_leaf_vector":"1"}},{"base_weights":[-1.9991113E-2,-7.015517E-1,3.3769524E-1,-8.658152E-1,-3.0407855E-1,1.5300889E-2,6.600533E-1,-6.722743E-3,-1.0409299E-2,-7.244065E-4,-6.184078E-3,-4.9477993E-3,1.6334017E-3,2.9425132E-3,7.7838846E-3],"categories":[],"categories_nodes":[],"categories_segments":[],"categories_sizes":[],"default_left":[0,0,0,0,0,0,0,0,0,0,0,0,0,0,0],"id":77,"left_children":[1,3,5,7,9,11,13,-1,-1,-1,-1,-1,-1,-1,-1],"loss_changes":[2.2414339E2,2.0397125E1,6.265966E1,6.8704224E0,6.804826E0,2.292448E1,1.282222E1,0E0,0E0,0E0,0E0,0E0,0E0,0E0,0E0],"parents":[2147483647,0,0,1,1,2,2,3,3,4,4,5,5,6,6],"right_children":[2,4,6,8,10,12,14,-1,-1,-1,-1,-1,-1,-1,-1],"split_conditions":[1E0,9.355E1,1E0,1E0,1E0,2.51E1,1E0,-6.722743E-3,-1.0409299E-2,-7.244065E-4,-6.184078E-3,-4.9477993E-3,1.6334017E-3,2.9425132E-3,7.7838846E-3],"split_indices":[2,1,6,9,9,1,5,0,0,0,0,0,0,0,0],"split_type":[0,0,0,0,0,0,0,0,0,0,0,0,0,0,0],"sum_hessian":[9.1745905E2,3.1543872E2,6.020204E2,2.2236412E2,9.307459E1,3.0151697E2,3.005034E2,1.0792357E2,1.1444055E2,5.4294174E1,3.8780415E1,6.7297165E1,2.342198E2,7.430272E1,2.2620067E2],"tree_param":{"num_deleted":"0","num_feature":"12","num_nodes":"15","size_leaf_vector":"1"}},{"base_weights":[-3.526646E-2,-7.5612605E-1,3.4301683E-1,-9.043401E-1,-3.957203E-1,-3.8424276E-2,6.090106E-1,-9.588698E-3,-4.8550013E-3,-1.260883E-3,-7.326039E-3,-5.183591E-3,1.1441899E-3,2.1607087E-3,7.094822E-3],"categories":[],"categories_nodes":[],"categories_segments":[],"categories_sizes":[],"default_left":[0,0,0,0,0,0,0,0,0,0,0,0,0,0,0],"id":78,"left_children":[1,3,5,7,9,11,13,-1,-1,-1,-1,-1,-1,-1,-1],"loss_changes":[2.4748976E2,1.6326584E1,6.0422676E1,4.571594E0,8.336715E0,1.8068897E1,1.3695328E1,0E0,0E0,0E0,0E0,0E0,0E0,0E0,0E0],"parents":[2147483647,0,0,1,1,2,2,3,3,4,4,5,5,6,6],"right_children":[2,4,6,8,10,12,14,-1,-1,-1,-1,-1,-1,-1,-1],"split_conditions":[1E0,9.355E1,1E0,1E0,1E0,2.085E1,1E0,-9.588698E-3,-4.8550013E-3,-1.260883E-3,-7.326039E-3,-5.183591E-3,1.1441899E-3,2.1607087E-3,7.094822E-3],"split_indices":[2,1,4,6,9,1,5,0,0,0,0,0,0,0,0],"split_type":[0,0,0,0,0,0,0,0,0,0,0,0,0,0,0],"sum_hessian":[9.056382E2,3.1134256E2,5.9429565E2,2.1954655E2,9.1796005E1,2.445134E2,3.4978226E2,1.9311511E2,2.6431442E1,5.175059E1,4.004541E1,5.8482914E1,1.8603047E2,7.186649E1,2.7791577E2],"tree_param":{"num_deleted":"0","num_feature":"12","num_nodes":"15","size_leaf_vector":"1"}},{"base_weights":[-4.2378165E-2,-7.443529E-1,3.138906E-1,-1.0650758E0,-6.0871804E-1,8.853715E-1,2.0008922E-1,-3.5453006E-3,-1.0733655E-2,-5.1190755E-3,-1.0226826E-2,5.75183E-3,1.2999852E-2,-1.8203852E-3,3.6747095E-3],"categories":[],"categories_nodes":[],"categories_segments":[],"categories_sizes":[],"default_left":[0,0,0,0,0,0,0,0,0,0,0,0,0,0,0],"id":79,"left_children":[1,3,5,7,9,11,13,-1,-1,-1,-1,-1,-1,-1,-1],"loss_changes":[2.2968323E2,1.2800934E1,3.944835E1,1.5283966E-1,8.277786E0,1.2227585E1,3.2648865E1,0E0,0E0,0E0,0E0,0E0,0E0,0E0,0E0],"parents":[2147483647,0,0,1,1,2,2,3,3,4,4,5,5,6,6],"right_children":[2,4,6,8,10,12,14,-1,-1,-1,-1,-1,-1,-1,-1],"split_conditions":[1E0,1E0,2E0,4.025E1,7.1E1,6.695E1,1E0,-3.5453006E-3,-1.0733655E-2,-5.1190755E-3,-1.0226826E-2,5.75183E-3,1.2999852E-2,-1.8203852E-3,3.6747095E-3],"split_indices":[2,8,0,3,0,3,5,0,0,0,0,0,0,0,0],"split_type":[0,0,0,0,0,0,0,0,0,0,0,0,0,0,0],"sum_hessian":[9.164619E2,3.081698E2,6.082921E2,8.9555E1,2.186148E2,9.98901E1,5.0840204E2,1.5374807E0,8.801752E1,1.7899203E2,3.9622765E1,5.850646E1,4.138364E1,1.5483365E2,3.535684E2],"tree_param":{"num_deleted":"0","num_feature":"12","num_nodes":"15","size_leaf_vector":"1"}},{"base_weights":[-1.3416459E-2,-7.048708E-1,3.4407425E-1,-8.713908E-1,-3.122837E-1,-3.6527712E-2,6.134343E-1,-1.0695816E-2,-7.3258244E-3,-1.7971984E-3,-9.061485E-3,3.4600093E-3,-3.9468664E-3,7.209861E-3,-4.621557E-3],"categories":[],"categories_nodes":[],"categories_segments":[],"categories_sizes":[],"default_left":[0,0,0,0,0,0,0,0,0,0,0,0,0,0,0],"id":80,"left_children":[1,3,5,7,9,11,13,-1,-1,-1,-1,-1,-1,-1,-1],"loss_changes":[2.257374E2,2.0073944E1,6.17399E1,5.213089E0,7.257146E0,3.4447212E1,4.1120148E1,0E0,0E0,0E0,0E0,0E0,0E0,0E0,0E0],"parents":[2147483647,0,0,1,1,2,2,3,3,4,4,5,5,6,6],"right_children":[2,4,6,8,10,12,14,-1,-1,-1,-1,-1,-1,-1,-1],"split_conditions":[1E0,9.355E1,1E0,3.09E1,7.2E1,6E0,5.2E1,-1.0695816E-2,-7.3258244E-3,-1.7971984E-3,-9.061485E-3,3.4600093E-3,-3.9468664E-3,7.209861E-3,-4.621557E-3],"split_indices":[2,1,4,1,0,0,0,0,0,0,0,0,0,0,0],"split_type":[0,0,0,0,0,0,0,0,0,0,0,0,0,0,0],"sum_hessian":[9.112384E2,3.1022775E2,6.010106E2,2.1697565E2,9.325213E1,